tree
version=v3
num_class=1
num_tree_per_iteration=1
label_index=0
max_feature_idx=2
objective=binary sigmoid:1
feature_names=feature_1 feature_2 feature_3
feature_infos=-1:3:2:5:4:1 -1:1:2:3 -1:1:0
tree_sizes=1510 1520 1532 1528 1533 1542 1532 1530 1535 1539 1544 1548 1551 1556 1551 1555 1563 1564 1564 1562 1562 1569 1569 1576 1573 1577 1576 1583 1578 1582 1579 1590 1589 1586 1586 1590 1593 1586 1593 1591 1598 1595 1599 1594 1599 1602 1594 1601 1600 1601 1599 1598 1606 1605 1603 1606 1603 1604 1601 1599 1597 1603 1601 1601 1600 1600 1604 1600 1599 1600 1605 1600 1601 1601 1605 1605 1603 1604 1600 1607 1604 1604 1601 1605 1605 1601 1607 1602 1605 1605 1603 1602 1604 1605 1604 1605 1602 1605 1605 1603

Tree=0
num_leaves=14
num_cat=13
split_feature=0 1 2 1 0 0 1 1 1 2 1 2 1
split_gain=38.951 10.569 7.4789 27.171 4.74109 4.1991 2.67824 2.47127 2.03709 1.2725 1.14266 0.222518 0.0240037
threshold=0 1 2 3 4 5 6 7 8 9 10 11 12
decision_type=1 1 1 1 1 1 1 1 1 1 1 1 1
left_child=2 4 7 -4 11 8 9 -1 -3 -7 -5 -2 -9
right_child=1 5 3 10 -6 6 -8 12 -10 -11 -12 -13 -14
leaf_value=-0.074467864470356526 -0.074017834896369109 -0.074708897872864888 -0.059070885193349382 -0.072217243486141391 -0.081738584034777448 -0.085580526433649662 -0.09524677336587152 -0.070336267102977523 -0.083763516442586908 -0.078412605629963258 -0.076902063164044965 -0.071912848221617268 -0.070781621439733655
leaf_weight=2431.0025372803211 2406.0358890593052 687.83115848898888 2426.5085406005383 2403.2895577549934 921.26931935548782 1612.5958085954189 262.89880576729774 2407.7835544347763 388.98037928342819 292.6091171503067 664.61217564344406 634.65219777822495 2433.2495356202126
leaf_count=9737 9637 2755 9719 9626 3690 6459 1053 9644 1558 1172 2662 2542 9746
internal_value=-0.0730825 -0.0789553 -0.0697652 -0.0669781 -0.0754978 -0.083195 -0.0857269 -0.0718665 -0.0779347 -0.0844796 -0.0732321 -0.0735769 -0.0705601
internal_weight=0 7206.87 12766.4 5494.41 3961.96 3244.92 2168.1 7272.04 1076.81 1905.2 3067.9 3040.69 4841.03
internal_count=80000 28866 51134 22007 15869 12997 8684 29127 4313 7631 12288 12179 19390
cat_boundaries=0 1 2 3 4 5 6 7 8 9 10 11 12 13
cat_threshold=12 2 2 2 34 16 4 2 4 2 4 2 4
is_linear=0
shrinkage=1


Tree=1
num_leaves=14
num_cat=13
split_feature=0 1 2 1 0 0 1 1 1 2 1 2 1
split_gain=31.5634 8.56239 6.05539 21.9928 3.85187 3.40538 2.17407 2.00155 1.65125 1.03202 0.925672 0.18024 0.0194365
threshold=0 1 2 3 4 5 6 7 8 9 10 11 12
decision_type=1 1 1 1 1 1 1 1 1 1 1 1 1
left_child=2 4 7 -4 11 8 9 -1 -3 -7 -5 -2 -9
right_child=1 5 3 10 -6 6 -8 12 -10 -11 -12 -13 -14
leaf_value=-0.0012468845100300394 -0.00084182209785832311 -0.0014638473041989611 0.012604285685365455 0.0007787068080038614 -0.0078024878981316735 -0.011254088625050463 -0.019967434602598175 0.0024713573092839313 -0.0096171530862904763 -0.0047981061588748377 -0.0034381129013772633 0.0010526429269051951 0.0020706232525243098
leaf_weight=2430.878338009119 2405.9531740248203 687.78985947370529 2427.6316537111998 2403.3650064468384 920.9608519077301 1611.7969618141651 262.65385477244854 2408.020526945591 388.81758862733841 292.55008828639984 664.517054438591 634.67909169197083 2433.450819849968
leaf_count=9737 9637 2755 9719 9626 3690 6459 1053 9644 1558 1172 2662 2542 9746
internal_value=0 -0.00528811 0.00298518 0.00549273 -0.00217617 -0.00910518 -0.0113861 0.00109439 -0.00436785 -0.0102623 -0.000134675 -0.000444922 0.00226994
internal_weight=0 7205.2 12767.9 5495.51 3961.59 3243.61 2167 7272.35 1076.61 1904.35 3067.88 3040.63 4841.47
internal_count=80000 28866 51134 22007 15869 12997 8684 29127 4313 7631 12288 12179 19390
cat_boundaries=0 1 2 3 4 5 6 7 8 9 10 11 12 13
cat_threshold=12 2 2 2 34 16 4 2 4 2 4 2 4
is_linear=0
shrinkage=0.1


Tree=2
num_leaves=14
num_cat=13
split_feature=0 1 2 1 0 0 1 1 1 2 1 2 1
split_gain=25.5775 6.93703 4.90348 17.8051 3.12942 2.76193 1.76546 1.62113 1.33851 0.83706 0.749892 0.145996 0.0157412
threshold=0 1 2 3 4 5 6 7 8 9 10 11 12
decision_type=1 1 1 1 1 1 1 1 1 1 1 1 1
left_child=2 4 7 -4 11 8 9 -1 -3 -7 -5 -2 -9
right_child=1 5 3 10 -6 6 -8 12 -10 -11 -12 -13 -14
leaf_value=-0.0011222559295457442 -0.0007576642541467977 -0.0013175353243675598 0.011339874295256102 0.00070082515533348552 -0.0070330639854043579 -0.010134162663881686 -0.017990571467755734 0.0022240273439742726 -0.0086593170718242095 -0.0043191757952557395 -0.0030947481163983753 0.00094734649789058288 0.0018634076420675336
leaf_weight=2430.7645854055882 2405.8777827173471 687.75188572704792 2428.4389048367739 2403.4322791397572 920.65342918038368 1610.9705885052681 262.37830647826195 2408.2260276675224 388.65212813019753 292.49339962005615 664.42728826403618 634.70291742682457 2433.6263989508152
leaf_count=9737 9637 2755 9719 9626 3690 6459 1053 9644 1558 1172 2662 2542 9746
internal_value=0 -0.00476164 0.00268639 0.00494266 -0.00196073 -0.00819836 -0.0102533 0.000984908 -0.00393187 -0.00924061 -0.000121208 -0.000400437 0.00204277
internal_weight=0 7203.48 12768.9 5496.3 3961.23 3242.25 2165.84 7272.62 1076.4 1903.46 3067.86 3040.58 4841.85
internal_count=80000 28866 51134 22007 15869 12997 8684 29127 4313 7631 12288 12179 19390
cat_boundaries=0 1 2 3 4 5 6 7 8 9 10 11 12 13
cat_threshold=12 2 2 2 34 16 4 2 4 2 4 2 4
is_linear=0
shrinkage=0.1


Tree=3
num_leaves=14
num_cat=13
split_feature=0 1 2 1 0 0 1 1 1 2 1 2 1
split_gain=20.7271 5.62027 3.97105 14.4169 2.54245 2.24015 1.43398 1.31303 1.085 0.678948 0.607481 0.118258 0.0127466
threshold=0 1 2 3 4 5 6 7 8 9 10 11 12
decision_type=1 1 1 1 1 1 1 1 1 1 1 1 1
left_child=2 4 7 -4 11 8 9 -1 -3 -7 -5 -2 -9
right_child=1 5 3 10 -6 6 -8 12 -10 -11 -12 -13 -14
leaf_value=-0.0010100755226272694 -0.00068192120373975753 -0.0011858450493508568 0.010203388507038348 0.00063072657694992953 -0.0063394778893094347 -0.0091257094450817918 -0.016210574646626966 0.002001464437617115 -0.0077968590790171433 -0.0038880195033217262 -0.0027856416913935094 0.00085257703459414285 0.0016769663488364367
leaf_weight=2430.6605540066957 2405.8092843294144 687.71707303822041 2429.0006786286831 2403.492093026638 920.35238474607468 1610.139691606164 262.0857021510601 2408.4047989249229 388.48787486553192 292.43950521945953 664.34315478801727 634.72409164905548 2433.7800488173962
leaf_count=9737 9637 2755 9719 9626 3690 6459 1053 9644 1558 1172 2662 2542 9746
internal_value=0 -0.0042876 0.00241758 0.0044479 -0.00176662 -0.00738189 -0.00923326 0.000886387 -0.0035394 -0.00832064 -0.000109092 -0.000360403 0.00183837
internal_weight=0 7201.76 12769.7 5496.84 3960.89 3240.87 2164.66 7272.85 1076.2 1902.58 3067.84 3040.53 4842.18
internal_count=80000 28866 51134 22007 15869 12997 8684 29127 4313 7631 12288 12179 19390
cat_boundaries=0 1 2 3 4 5 6 7 8 9 10 11 12 13
cat_threshold=12 2 2 2 34 16 4 2 4 2 4 2 4
is_linear=0
shrinkage=0.1


Tree=4
num_leaves=14
num_cat=13
split_feature=0 1 2 1 0 0 1 1 1 2 1 2 1
split_gain=16.7966 4.55344 3.21617 11.675 2.06555 1.81694 1.16486 1.06349 0.879487 0.550703 0.492114 0.0957901 0.0103232
threshold=0 1 2 3 4 5 6 7 8 9 10 11 12
decision_type=1 1 1 1 1 1 1 1 1 1 1 1 1
left_child=2 4 7 -4 11 8 9 -1 -3 -7 -5 -2 -9
right_child=1 5 3 10 -6 6 -8 12 -10 -11 -12 -13 -14
leaf_value=-0.00090909960364218628 -0.00061374737331300463 -0.0010673179296270653 0.0091815639674940816 0.00056763879570843716 -0.0057142363386400337 -0.0082175475631954056 -0.0146071218819124 0.0018011946689753409 -0.0070202291344859946 -0.0034998577799338405 -0.0025073973028763279 0.00076729866903694946 0.0015091765585386885
leaf_weight=2430.5656634420156 2405.7469608485699 687.68525719642639 2429.3727324754 2403.5454521775246 920.06173253059387 1609.3213067650795 261.78619381785393 2408.5605770945549 388.3276147544384 292.38868451118469 664.26469367742538 634.74287950992584 2433.9148192107677
leaf_count=9737 9637 2755 9719 9626 3690 6459 1053 9644 1558 1172 2662 2542 9746
internal_value=0 -0.00386074 0.00217571 0.00400282 -0.00159172 -0.00664671 -0.00831468 0.000797722 -0.00318608 -0.0074922 -9.81905e-05 -0.000324369 0.00165442
internal_weight=0 7200.06 12770.2 5497.18 3960.55 3239.51 2163.5 7273.04 1076.01 1901.71 3067.81 3040.49 4842.48
internal_count=80000 28866 51134 22007 15869 12997 8684 29127 4313 7631 12288 12179 19390
cat_boundaries=0 1 2 3 4 5 6 7 8 9 10 11 12 13
cat_threshold=12 2 2 2 34 16 4 2 4 2 4 2 4
is_linear=0
shrinkage=0.1


Tree=5
num_leaves=14
num_cat=13
split_feature=0 1 2 1 0 0 1 1 1 2 1 2 1
split_gain=13.6114 3.68903 2.60493 9.45532 1.67807 1.47365 0.94628 0.861384 0.712888 0.446669 0.398651 0.0775897 0.0083608
threshold=0 1 2 3 4 5 6 7 8 9 10 11 12
decision_type=1 1 1 1 1 1 1 1 1 1 1 1 1
left_child=2 4 7 -4 11 8 9 -1 -3 -7 -5 -2 -9
right_child=1 5 3 10 -6 6 -8 12 -10 -11 -12 -13 -14
leaf_value=-0.00081822512651514635 -0.00055237987384513566 -0.00096062659783716455 0.0082625831402708145 0.00051086304259822461 -0.0051505762469552336 -0.0073996403543549697 -0.013162252216221146 0.0016209803314485315 -0.0063208633110879838 -0.0031504164132597485 -0.0022569175189805237 0.00069054979413000583 0.0013581867682120636
leaf_weight=2430.4793333411217 2405.6905250698328 687.65623293817043 2429.5995274633169 2403.593073785305 919.78394687175751 1608.5276573002338 261.48732881247997 2408.6965237259865 388.17329794168472 292.34105974435806 664.19190493226051 634.75958403944969 2434.0330337584019
leaf_count=9737 9637 2755 9719 9626 3690 6459 1053 9644 1558 1172 2662 2542 9746
internal_value=0 -0.00347634 0.00195807 0.00360238 -0.00143412 -0.00598466 -0.00748739 0.000717928 -0.00286801 -0.00674614 -8.83763e-05 -0.000291931 0.0014889
internal_weight=0 7198.42 12770.6 5497.38 3960.23 3238.19 2162.36 7273.21 1075.83 1900.87 3067.78 3040.45 4842.73
internal_count=80000 28866 51134 22007 15869 12997 8684 29127 4313 7631 12288 12179 19390
cat_boundaries=0 1 2 3 4 5 6 7 8 9 10 11 12 13
cat_threshold=12 2 2 2 34 16 4 2 4 2 4 2 4
is_linear=0
shrinkage=0.1


Tree=6
num_leaves=14
num_cat=13
split_feature=0 1 2 1 0 0 1 1 1 2 1 2 1
split_gain=11.0303 2.98862 2.10997 7.65823 1.36325 1.19517 0.768691 0.697693 0.57783 0.36227 0.322939 0.0628479 0.0067711
threshold=0 1 2 3 4 5 6 7 8 9 10 11 12
decision_type=1 1 1 1 1 1 1 1 1 1 1 1 1
left_child=2 4 7 -4 11 8 9 -1 -3 -7 -5 -2 -9
right_child=1 5 3 10 -6 6 -8 12 -10 -11 -12 -13 -14
leaf_value=-0.00073643384168051542 -0.00049715644119009976 -0.00086459153453155547 0.0074359540958152393 0.00045977163918619571 -0.0046424477410588949 -0.0066629950985298619 -0.011860036596345163 0.0014588016584605298 -0.005691053295618061 -0.0028358315571336366 -0.0020314457829102009 0.00062147411852269926 0.0012223129446275946
leaf_weight=2430.400548055768 2405.639258980751 687.629753947258 2429.7159662693739 2403.63553160429 919.52084228396416 1607.76702041924 261.19461464881897 2408.8156566619873 388.02627095580101 292.29664838314056 664.12459021806717 634.77447038888931 2434.1371613144875
leaf_count=9737 9637 2755 9719 9626 3690 6459 1053 9644 1558 1172 2662 2542 9746
internal_value=0 -0.00313018 0.00176222 0.00324208 -0.00129213 -0.00538847 -0.00674228 0.000646116 -0.00258166 -0.00607424 -7.954e-05 -0.000262746 0.00133994
internal_weight=0 7196.85 12770.8 5497.48 3959.93 3236.91 2161.26 7273.35 1075.66 1900.06 3067.76 3040.41 4842.95
internal_count=80000 28866 51134 22007 15869 12997 8684 29127 4313 7631 12288 12179 19390
cat_boundaries=0 1 2 3 4 5 6 7 8 9 10 11 12 13
cat_threshold=12 2 2 2 34 16 4 2 4 2 4 2 4
is_linear=0
shrinkage=0.1


Tree=7
num_leaves=14
num_cat=13
split_feature=0 1 2 1 0 0 1 1 1 2 1 2 1
split_gain=8.93858 2.42111 1.70908 6.20302 1.10745 0.969268 0.624377 0.565108 0.468337 0.293805 0.261599 0.0509084 0.00548442
threshold=0 1 2 3 4 5 6 7 8 9 10 11 12
decision_type=1 1 1 1 1 1 1 1 1 1 1 1 1
left_child=2 4 7 -4 11 8 9 -1 -3 -7 -5 -2 -9
right_child=1 5 3 10 -6 6 -8 12 -10 -11 -12 -13 -14
leaf_value=-0.00066280856019570544 -0.00044745184192600767 -0.00077817071913359372 0.0066922519945144063 0.00041377940331088423 -0.0041843641491795666 -0.005999545539413606 -0.010686234491688625 0.0013128672759548921 -0.0051238773413649855 -0.0025526268411282505 -0.0018284756166784778 0.00055932496359581917 0.0011000349943208866
leaf_weight=2430.3291624933481 2405.5927317738533 687.60561496019363 2429.75 2403.6735428273678 919.27335351705551 1607.0449784249067 260.91194267570972 2408.9201315045357 387.88734635710716 292.25546789169312 664.06259086728096 634.78776583075523 2434.2287993729115
leaf_count=9737 9637 2755 9719 9626 3690 6459 1053 9644 1558 1172 2662 2542 9746
internal_value=0 -0.00281846 0.00158598 0.00291786 -0.00116418 -0.00485158 -0.00607117 0.000581494 -0.00232389 -0.00546915 -7.1594e-05 -0.000236474 0.0012059
internal_weight=0 7195.36 12771 5497.49 3959.65 3235.71 2160.21 7273.48 1075.49 1899.3 3067.74 3040.38 4843.15
internal_count=80000 28866 51134 22007 15869 12997 8684 29127 4313 7631 12288 12179 19390
cat_boundaries=0 1 2 3 4 5 6 7 8 9 10 11 12 13
cat_threshold=12 2 2 2 34 16 4 2 4 2 4 2 4
is_linear=0
shrinkage=0.1


Tree=8
num_leaves=14
num_cat=13
split_feature=0 1 2 1 0 0 1 1 1 2 1 2 1
split_gain=7.24349 1.96127 1.3844 5.02451 0.899646 0.786012 0.507101 0.457721 0.379583 0.238262 0.211913 0.0412349 0.00444142
threshold=0 1 2 3 4 5 6 7 8 9 10 11 12
decision_type=1 1 1 1 1 1 1 1 1 1 1 1 1
left_child=2 4 7 -4 11 8 9 -1 -3 -7 -5 -2 -9
right_child=1 5 3 10 -6 6 -8 12 -10 -11 -12 -13 -14
leaf_value=-0.00059653897116547516 -0.00040271131660386014 -0.00070036931092601817 0.00602309553951259 0.00037240145168139239 -0.0037714306242361273 -0.0054020003178887697 -0.0096281166481571624 0.0011815310740960227 -0.0046131325978870921 -0.0022976768254690336 -0.0016457777841888937 0.0005033737238124465 0.00099000627046691176
leaf_weight=2430.2641610056162 2405.5506562441587 687.58373387157917 2429.723207488656 2403.7075377702713 919.04192045331001 1606.364707455039 260.64193327724934 2409.0119601488113 387.7569420337677 292.21737855672836 664.0055895447731 634.79958400130272 2434.3098358809948
leaf_count=9737 9637 2755 9719 9626 3690 6459 1053 9644 1558 1172 2662 2542 9746
internal_value=0 -0.00253775 0.00142738 0.0026261 -0.0010489 -0.00436808 -0.0054667 0.00052334 -0.00209182 -0.0049242 -6.44328e-05 -0.000212828 0.00108527
internal_weight=0 7193.96 12771 5497.44 3959.39 3234.56 2159.22 7273.59 1075.34 1898.58 3067.71 3040.35 4843.32
internal_count=80000 28866 51134 22007 15869 12997 8684 29127 4313 7631 12288 12179 19390
cat_boundaries=0 1 2 3 4 5 6 7 8 9 10 11 12 13
cat_threshold=12 2 2 2 34 16 4 2 4 2 4 2 4
is_linear=0
shrinkage=0.1


Tree=9
num_leaves=14
num_cat=13
split_feature=0 1 2 1 0 0 1 1 1 2 1 2 1
split_gain=5.8698 1.5887 1.12142 4.07003 0.730804 0.637362 0.411799 0.37074 0.307631 0.193207 0.171662 0.0334009 0.00359748
threshold=0 1 2 3 4 5 6 7 8 9 10 11 12
decision_type=1 1 1 1 1 1 1 1 1 1 1 1 1
left_child=2 4 7 -4 11 8 9 -1 -3 -7 -5 -2 -9
right_child=1 5 3 10 -6 6 -8 12 -10 -11 -12 -13 -14
leaf_value=-0.00053689734559579107 -0.00036245164543778922 -0.0006303584295079273 0.0054209538880160436 0.00033515454516339224 -0.0033991709643771736 -0.0048638411922324112 -0.0086742844258949747 0.0010633391496543952 -0.004153184240243895 -0.0020681673490479981 -0.0014813258191816098 0.00045302822349101065 0.00089097114518330543
leaf_weight=2430.2052534073591 2405.5126015841961 687.56382331252098 2429.6523883640766 2403.7379467487335 918.82643312215805 1605.7278437018394 260.38629676401615 2409.0928670763969 387.63524371385574 292.18229305744171 663.9533879160881 634.8101521730423 2434.3815778791904
leaf_count=9737 9637 2755 9719 9626 3690 6459 1053 9644 1558 1172 2662 2542 9746
internal_value=0 -0.00228497 0.00128464 0.00236353 -0.000945035 -0.00393267 -0.00492228 0.000470996 -0.00188291 -0.00443345 -5.7994e-05 -0.000191552 0.000976705
internal_weight=0 7192.64 12771 5497.34 3959.15 3233.5 2158.3 7273.68 1075.2 1897.91 3067.69 3040.32 4843.47
internal_count=80000 28866 51134 22007 15869 12997 8684 29127 4313 7631 12288 12179 19390
cat_boundaries=0 1 2 3 4 5 6 7 8 9 10 11 12 13
cat_threshold=12 2 2 2 34 16 4 2 4 2 4 2 4
is_linear=0
shrinkage=0.1


Tree=10
num_leaves=14
num_cat=13
split_feature=0 1 2 1 0 0 1 1 1 2 1 2 1
split_gain=4.75659 1.28684 0.908404 3.29692 0.59364 0.516784 0.334361 0.300295 0.24931 0.156659 0.139055 0.0270552 0.00291392
threshold=0 1 2 3 4 5 6 7 8 9 10 11 12
decision_type=1 1 1 1 1 1 1 1 1 1 1 1 1
left_child=2 4 7 -4 11 8 9 -1 -3 -7 -5 -2 -9
right_child=1 5 3 10 -6 6 -8 12 -10 -11 -12 -13 -14
leaf_value=-0.00048322223295758459 -0.00032621434437246676 -0.00056733988740804758 0.0048790730770626473 0.00030163869291457117 -0.0030636113273980743 -0.0043791570871916678 -0.0078144626559122285 0.00095698125472604059 -0.0037390182442035751 -0.0018615697584710848 -0.0013332881580794126 0.0004077211442299213 0.00080185338768004046
leaf_weight=2430.1520044207573 2405.4782805889845 687.5457601249218 2429.5511561185122 2403.7652000784874 918.62672656774521 1605.1347721517086 260.14599028229713 2409.164289355278 387.52220496535301 292.15007168054581 663.90558931231499 634.81958398222923 2434.4450419545174
leaf_count=9737 9637 2755 9719 9626 3690 6459 1053 9644 1558 1172 2662 2542 9746
internal_value=0 -0.00205734 0.00115618 0.00212723 -0.000851449 -0.00354058 -0.00443193 0.000423892 -0.00169485 -0.00399149 -5.21923e-05 -0.0001724 0.000879012
internal_weight=0 7191.42 12771 5497.22 3958.92 3232.5 2157.43 7273.76 1075.07 1897.28 3067.67 3040.3 4843.61
internal_count=80000 28866 51134 22007 15869 12997 8684 29127 4313 7631 12288 12179 19390
cat_boundaries=0 1 2 3 4 5 6 7 8 9 10 11 12 13
cat_threshold=12 2 2 2 34 16 4 2 4 2 4 2 4
is_linear=0
shrinkage=0.1


Tree=11
num_leaves=14
num_cat=13
split_feature=0 1 2 1 0 0 1 1 1 2 1 2 1
split_gain=3.85446 1.04229 0.735854 2.6707 0.482212 0.418992 0.271442 0.243234 0.202041 0.127016 0.112643 0.021915 0.00235988
threshold=0 1 2 3 4 5 6 7 8 9 10 11 12
decision_type=1 1 1 1 1 1 1 1 1 1 1 1 1
left_child=2 4 7 -4 11 8 9 -1 -3 -7 -5 -2 -9
right_child=1 5 3 10 -6 6 -8 12 -10 -11 -12 -13 -14
leaf_value=-0.00043491126295345232 -0.00029359288843945825 -0.00051061081553646409 0.0043913947784310053 0.00027147170373348584 -0.002761133202121398 -0.0039426676382843164 -0.0070394251758400753 0.00086125614252447922 -0.0033660824398079239 -0.0016755903946271381 -0.0012000513829532021 0.00036695072146639558 0.00072165434868418142
leaf_weight=2430.1035434901714 2405.4471188485622 687.52938009798527 2429.429503634572 2403.7895846366882 918.44225093722343 1604.5848190784454 259.92142179608345 2409.227376639843 387.41761684417725 292.12052232027054 663.86199539899826 634.82803094387054 2434.5012446939945
leaf_count=9737 9637 2755 9719 9626 3690 6459 1053 9644 1558 1172 2662 2542 9746
internal_value=0 -0.00185235 0.00104057 0.00191456 -0.000767123 -0.0031875 -0.00399031 0.000381498 -0.00152555 -0.0035935 -4.69765e-05 -0.000155157 0.000791091
internal_weight=0 7190.29 12770.9 5497.08 3958.72 3231.57 2156.63 7273.83 1074.95 1896.71 3067.65 3040.28 4843.73
internal_count=80000 28866 51134 22007 15869 12997 8684 29127 4313 7631 12288 12179 19390
cat_boundaries=0 1 2 3 4 5 6 7 8 9 10 11 12 13
cat_threshold=12 2 2 2 34 16 4 2 4 2 4 2 4
is_linear=0
shrinkage=0.1


Tree=12
num_leaves=14
num_cat=13
split_feature=0 1 2 1 0 0 1 1 1 2 1 2 1
split_gain=3.1234 0.844182 0.596088 2.16344 0.39169 0.339681 0.220331 0.197013 0.163725 0.102974 0.0912452 0.0177505 0.00191148
threshold=0 1 2 3 4 5 6 7 8 9 10 11 12
decision_type=1 1 1 1 1 1 1 1 1 1 1 1 1
left_child=2 4 7 -4 11 8 9 -1 -3 -7 -5 -2 -9
right_child=1 5 3 10 -6 6 -8 12 -10 -11 -12 -13 -14
leaf_value=-0.00039142819405474008 -0.00026423034878523399 -0.0004595625694625541 0.0039524836171223052 0.00024432456978573707 -0.0024884750632157017 -0.0035495882863663081 -0.0063408643226119362 0.00077510577014552721 -0.0030302629581885447 -0.0015081845781936797 -0.0010801107756241259 0.00033024533875528268 0.00064946626414873914
leaf_weight=2430.0598706156015 2405.4189727604389 687.51456007361412 2429.295251429081 2403.8113873004913 918.27234640717506 1604.076733276248 259.71257561445236 2409.2831348776817 387.32117754220963 292.09350526332855 663.82220950722694 634.8356066942215 2434.5513479113579
leaf_count=9737 9637 2755 9719 9626 3690 6459 1053 9644 1558 1172 2662 2542 9746
internal_value=0 -0.00166777 0.000936518 0.00172315 -0.000691145 -0.00286957 -0.0035926 0.000343339 -0.00137315 -0.00323512 -4.22773e-05 -0.000139639 0.000711958
internal_weight=0 7189.25 12770.8 5496.93 3958.53 3230.72 2155.88 7273.89 1074.84 1896.17 3067.63 3040.25 4843.83
internal_count=80000 28866 51134 22007 15869 12997 8684 29127 4313 7631 12288 12179 19390
cat_boundaries=0 1 2 3 4 5 6 7 8 9 10 11 12 13
cat_threshold=12 2 2 2 34 16 4 2 4 2 4 2 4
is_linear=0
shrinkage=0.1


Tree=13
num_leaves=14
num_cat=13
split_feature=0 1 2 1 0 0 1 1 1 2 1 2 1
split_gain=2.53099 0.683692 0.482864 1.75255 0.318149 0.275364 0.178818 0.159578 0.132672 0.0834772 0.0739113 0.0143785 0.00154797
threshold=0 1 2 3 4 5 6 7 8 9 10 11 12
decision_type=1 1 1 1 1 1 1 1 1 1 1 1 1
left_child=2 4 7 -4 11 8 9 -1 -3 -7 -5 -2 -9
right_child=1 5 3 10 -6 6 -8 12 -10 -11 -12 -13 -14
leaf_value=-0.00035228975153965168 -0.00023781555385827443 -0.00041361024320253924 0.0035574610483441525 0.00021988756239321234 -0.0022426993942377305 -0.0031956075693002372 -0.0057112686918105041 0.00069758016131906721 -0.0027278962848287527 -0.001357485914168721 -0.00097215008581608218 0.00029722208446139814 0.00058451774415272479
leaf_weight=2430.0202603340149 2405.3935551196337 687.501135841012 2429.1543373018503 2403.8310383856297 918.11624318361282 1603.6088785529137 259.51918499171734 2409.3325700163841 387.23253881931305 292.06882840394974 663.78603330254555 634.84234911203384 2434.5957872867584
leaf_count=9737 9637 2755 9719 9626 3690 6459 1053 9644 1558 1172 2662 2542 9746
internal_value=0 -0.00150157 0.000842878 0.00155089 -0.000622693 -0.00258329 -0.00323443 0.000309006 -0.00123596 -0.00291241 -3.80514e-05 -0.000125679 0.000640754
internal_weight=0 7188.28 12770.7 5496.77 3958.35 3229.93 2155.2 7273.95 1074.73 1895.68 3067.62 3040.24 4843.93
internal_count=80000 28866 51134 22007 15869 12997 8684 29127 4313 7631 12288 12179 19390
cat_boundaries=0 1 2 3 4 5 6 7 8 9 10 11 12 13
cat_threshold=12 2 2 2 34 16 4 2 4 2 4 2 4
is_linear=0
shrinkage=0.1


Tree=14
num_leaves=14
num_cat=13
split_feature=0 1 2 1 0 0 1 1 1 2 1 2 1
split_gain=2.05093 0.553692 0.391145 1.41969 0.258413 0.22321 0.145103 0.129258 0.107504 0.0676676 0.0598713 0.0116463 0.00125401
threshold=0 1 2 3 4 5 6 7 8 9 10 11 12
decision_type=1 1 1 1 1 1 1 1 1 1 1 1 1
left_child=2 4 7 -4 11 8 9 -1 -3 -7 -5 -2 -9
right_child=1 5 3 10 -6 6 -8 12 -10 -11 -12 -13 -14
leaf_value=-0.00031706645637838817 -0.00021403923953157794 -0.0003722653383216354 0.0032019132578360678 0.00019789723110098971 -0.0020211778676412005 -0.0028768627049232547 -0.0051438700939017735 0.00062781852034062783 -0.0024556532170576999 -0.0012218396705726774 -0.00087498458307268528 0.00026748795135843806 0.00052605708416542834
leaf_weight=2429.9845675528049 2405.3707223236561 687.48902529478073 2429.0113956332207 2403.8485378921032 917.97317147254944 1603.1791374832392 259.34070074558258 2409.3765442967415 387.15123635530472 292.04635202884674 663.75310978293419 634.84840971231461 2434.6352889537811
leaf_count=9737 9637 2755 9719 9626 3690 6459 1053 9644 1558 1172 2662 2542 9746
internal_value=0 -0.00135191 0.0007586 0.00139585 -0.000561021 -0.00232553 -0.00291189 0.000278106 -0.00111248 -0.00262183 -3.42479e-05 -0.000113116 0.000576672
internal_weight=0 7187.4 12770.6 5496.61 3958.19 3229.21 2154.57 7274 1074.64 1895.23 3067.6 3040.22 4844.01
internal_count=80000 28866 51134 22007 15869 12997 8684 29127 4313 7631 12288 12179 19390
cat_boundaries=0 1 2 3 4 5 6 7 8 9 10 11 12 13
cat_threshold=12 2 2 2 34 16 4 2 4 2 4 2 4
is_linear=0
shrinkage=0.1


Tree=15
num_leaves=14
num_cat=13
split_feature=0 1 2 1 0 0 1 1 1 2 1 2 1
split_gain=1.6619 0.448394 0.316849 1.15006 0.209889 0.180925 0.117728 0.104695 0.0871087 0.0548494 0.0484968 0.00943363 0.00101571
threshold=0 1 2 3 4 5 6 7 8 9 10 11 12
decision_type=1 1 1 1 1 1 1 1 1 1 1 1 1
left_child=2 4 7 -4 11 8 9 -1 -3 -7 -5 -2 -9
right_child=1 5 3 10 -6 6 -8 12 -10 -11 -12 -13 -14
leaf_value=-0.00028535892165914336 -0.00019263792271889685 -0.00033503930632353997 0.0028819010445385435 0.00017809781133167735 -0.0018215084974409893 -0.00258985310961786 -0.0046325748419901525 0.00056502143539718529 -0.0022105391658172424 -0.0010997348609321376 -0.00078752285628770353 0.00024073789273267433 0.00047343866009796507
leaf_weight=2429.9522119015455 2405.3500435650349 687.47802317142487 2428.8696125596762 2403.8643161356449 917.84225150942802 1602.7854888886213 259.17651093006134 2409.4154888391495 387.07682904601097 292.02588403224945 663.72324061393738 634.85382637381554 2434.670579046011
leaf_count=9737 9637 2755 9719 9626 3690 6459 1053 9644 1558 1172 2662 2542 9746
internal_value=0 -0.00121716 0.000682745 0.0012563 -0.000505452 -0.00209344 -0.00262145 0.000250292 -0.00100131 -0.0023602 -3.08302e-05 -0.000101806 0.000518991
internal_weight=0 7186.59 12770.5 5496.46 3958.05 3228.54 2153.99 7274.04 1074.55 1894.81 3067.59 3040.2 4844.09
internal_count=80000 28866 51134 22007 15869 12997 8684 29127 4313 7631 12288 12179 19390
cat_boundaries=0 1 2 3 4 5 6 7 8 9 10 11 12 13
cat_threshold=12 2 2 2 34 16 4 2 4 2 4 2 4
is_linear=0
shrinkage=0.1


Tree=16
num_leaves=14
num_cat=13
split_feature=0 1 2 1 0 0 1 1 1 2 1 2 1
split_gain=1.34665 0.363107 0.256664 0.931621 0.170475 0.146641 0.095506 0.0848038 0.0705798 0.0444567 0.0392848 0.00764137 0.000822603
threshold=0 1 2 3 4 5 6 7 8 9 10 11 12
decision_type=1 1 1 1 1 1 1 1 1 1 1 1 1
left_child=2 4 7 -4 11 8 9 -1 -3 -7 -5 -2 -9
right_child=1 5 3 10 -6 6 -8 12 -10 -11 -12 -13 -14
leaf_value=-0.00025683201583937817 -0.00017337390931353947 -0.00030153786762592119 0.0025938631577402688 0.00016029133719409335 -0.0016415478492966724 -0.0023314187508503914 -0.0041718823849796072 0.00050851334730793159 -0.0019898474585833006 -0.00098982007886437139 -0.00070880647394057318 0.00021666687198229804 0.00042609535556523712
leaf_weight=2429.9230482876301 2405.3313752412796 687.4681294709444 2428.7313052713871 2403.8785165548325 917.72271350026131 1602.4256228506565 259.02583099901676 2409.4502658843994 387.00887578725815 292.00728470087051 663.69614812731743 634.8587127327919 2434.7020932435989
leaf_count=9737 9637 2755 9719 9626 3690 6459 1053 9644 1558 1172 2662 2542 9746
internal_value=0 -0.00109582 0.000614477 0.0011307 -0.000455384 -0.00188448 -0.00235992 0.000225262 -0.000901251 -0.00212463 -2.77454e-05 -9.16234e-05 0.00046709
internal_weight=0 7185.85 12770.4 5496.31 3957.91 3227.94 2153.46 7274.08 1074.48 1894.43 3067.57 3040.19 4844.15
internal_count=80000 28866 51134 22007 15869 12997 8684 29127 4313 7631 12288 12179 19390
cat_boundaries=0 1 2 3 4 5 6 7 8 9 10 11 12 13
cat_threshold=12 2 2 2 34 16 4 2 4 2 4 2 4
is_linear=0
shrinkage=0.1


Tree=17
num_leaves=14
num_cat=13
split_feature=0 1 2 1 0 0 1 1 1 2 1 2 1
split_gain=1.0912 0.294032 0.207911 0.754672 0.13846 0.118847 0.0774677 0.0686885 0.0571858 0.0360308 0.0318215 0.00618962 0.000666243
threshold=0 1 2 3 4 5 6 7 8 9 10 11 12
decision_type=1 1 1 1 1 1 1 1 1 1 1 1 1
left_child=2 4 7 -4 11 8 9 -1 -3 -7 -5 -2 -9
right_child=1 5 3 10 -6 6 -8 12 -10 -11 -12 -13 -14
leaf_value=-0.00023114745418142477 -0.00015603761129485673 -0.00027139063409094749 0.0023346082998617437 0.00014426292010511591 -0.0014793480201008029 -0.0020987323251254021 -0.0037568009472607102 0.00045765004415861642 -0.001791165007036387 -0.00089089621356193806 -0.00063794687403772405 0.00019500140895189447 0.00038347793829720709
leaf_weight=2429.8967865258455 2405.3145737498999 687.45917998254299 2428.5982116609812 2403.8912825882435 917.61373266577721 1602.0970369577408 258.88786071538925 2409.4811628460884 386.94691225886345 291.99037939310074 663.67155465483665 634.8630687892437 2434.730121999979
leaf_count=9737 9637 2755 9719 9626 3690 6459 1053 9644 1558 1172 2662 2542 9746
internal_value=0 -0.000986569 0.000553035 0.00101766 -0.000410275 -0.00169634 -0.00212443 0.000202733 -0.000811187 -0.00191253 -2.49693e-05 -8.24609e-05 0.000420371
internal_weight=0 7185.17 12770.3 5496.16 3957.79 3227.38 2152.98 7274.11 1074.41 1894.09 3067.56 3040.18 4844.21
internal_count=80000 28866 51134 22007 15869 12997 8684 29127 4313 7631 12288 12179 19390
cat_boundaries=0 1 2 3 4 5 6 7 8 9 10 11 12 13
cat_threshold=12 2 2 2 34 16 4 2 4 2 4 2 4
is_linear=0
shrinkage=0.1


Tree=18
num_leaves=14
num_cat=13
split_feature=0 1 2 1 0 0 1 1 1 2 1 2 1
split_gain=0.884192 0.238093 0.168418 0.611335 0.112454 0.0963153 0.0628293 0.055639 0.0463329 0.0292003 0.0257763 0.0050134 0.000539766
threshold=0 1 2 3 4 5 6 7 8 9 10 11 12
decision_type=1 1 1 1 1 1 1 1 1 1 1 1 1
left_child=2 4 7 -4 11 8 9 -1 -3 -7 -5 -2 -9
right_child=1 5 3 10 -6 6 -8 12 -10 -11 -12 -13 -14
leaf_value=-0.00020804065009162552 -0.00014042662946121088 -0.00024425830158443447 0.0021012670140006565 0.00012983464887006985 -0.0013331500068644927 -0.0018892299551009275 -0.0033828596447632317 0.00041188781856508154 -0.0016123052092653608 -0.0008018505529614633 -0.00057417449155123276 0.00017550199025033743 0.00034512654561643042
leaf_weight=2429.8729913383722 2405.2993518859148 687.45109260082245 2428.4714903235435 2403.902614235878 917.51442924141884 1601.797710031271 258.76179984211922 2409.5087545514107 386.89049735665321 291.97506332397461 663.64930152893066 634.86697030067444 2434.7552462220192
leaf_count=9737 9637 2755 9719 9626 3690 6459 1053 9644 1558 1172 2662 2542 9746
internal_value=0 -0.0008882 0.000497737 0.000915922 -0.000369626 -0.00152697 -0.0019124 0.000182459 -0.000730122 -0.00172158 -2.24742e-05 -7.42083e-05 0.000378333
internal_weight=0 7184.56 12770.2 5496.02 3957.68 3226.88 2152.53 7274.14 1074.34 1893.77 3067.55 3040.17 4844.26
internal_count=80000 28866 51134 22007 15869 12997 8684 29127 4313 7631 12288 12179 19390
cat_boundaries=0 1 2 3 4 5 6 7 8 9 10 11 12 13
cat_threshold=12 2 2 2 34 16 4 2 4 2 4 2 4
is_linear=0
shrinkage=0.1


Tree=19
num_leaves=14
num_cat=13
split_feature=0 1 2 1 0 0 1 1 1 2 1 2 1
split_gain=0.716453 0.192786 0.136427 0.495215 0.0913326 0.0780524 0.0509516 0.0450663 0.0375388 0.0236633 0.020879 0.00406063 0.000437196
threshold=0 1 2 3 4 5 6 7 8 9 10 11 12
decision_type=1 1 1 1 1 1 1 1 1 1 1 1 1
left_child=2 4 7 -4 11 8 9 -1 -3 -7 -5 -2 -9
right_child=1 5 3 10 -6 6 -8 12 -10 -11 -12 -13 -14
leaf_value=-0.00018723863961913354 -0.00012638531547928022 -0.00021983057180383935 0.0018912329542937025 0.000116850162272592 -0.0012013992456129121 -0.0017006068216648608 -0.0030460031070810752 0.00037068976646122646 -0.0014512782978305524 -0.00072170403302963186 -0.00051676864728794148 0.00015794215910380641 0.00031060591593837244
leaf_weight=2429.8515176326036 2405.285566046834 687.4437852203846 2428.3517205566168 2403.9129418134689 917.42408841848373 1601.5253321528435 258.64680106937885 2409.5333284139633 386.83918997645378 291.96116185188293 663.62915074825287 634.87049302458763 2434.7776111364365
leaf_count=9737 9637 2755 9719 9626 3690 6459 1053 9644 1558 1172 2662 2542 9746
internal_value=0 -0.000799635 0.000447965 0.000824349 -0.000333013 -0.00137448 -0.0017215 0.000164209 -0.000657146 -0.00154967 -2.02263e-05 -6.679e-05 0.000340491
internal_weight=0 7184 12770.1 5495.89 3957.58 3226.42 2152.13 7274.16 1074.28 1893.49 3067.54 3040.16 4844.31
internal_count=80000 28866 51134 22007 15869 12997 8684 29127 4313 7631 12288 12179 19390
cat_boundaries=0 1 2 3 4 5 6 7 8 9 10 11 12 13
cat_threshold=12 2 2 2 34 16 4 2 4 2 4 2 4
is_linear=0
shrinkage=0.1


Tree=20
num_leaves=14
num_cat=13
split_feature=0 1 2 1 0 0 1 1 1 2 1 2 1
split_gain=0.580537 0.156098 0.110515 0.401154 0.0741775 0.0632503 0.0413145 0.0365026 0.0304128 0.0191759 0.016913 0.00328927 0.000354117
threshold=0 1 2 3 4 5 6 7 8 9 10 11 12
decision_type=1 1 1 1 1 1 1 1 1 1 1 1 1
left_child=2 4 7 -4 11 8 9 -1 -3 -7 -5 -2 -9
right_child=1 5 3 10 -6 6 -8 12 -10 -11 -12 -13 -14
leaf_value=-0.00016851413535975672 -0.00011374654575737887 -0.0001978500485130827 0.0017022022337712453 0.00010517238618346684 -0.0010826578547271626 -0.0015308001340602925 -0.002742573332856023 0.00033361392271030282 -0.0013063137371145692 -0.0006495627504194744 -0.00046510762374643648 0.00014215406183691246 0.0002795395564492694
leaf_weight=2429.8320752233267 2405.2733598351479 687.43717573583126 2428.2394816577435 2403.9221218824387 917.34199538826942 1601.2776896506548 258.54204846918583 2409.555315554142 386.79259544610977 291.94858765602112 663.61090397834778 634.87363696098328 2434.7976524233818
leaf_count=9737 9637 2755 9719 9626 3690 6459 1053 9644 1558 1172 2662 2542 9746
internal_value=0 -0.000719896 0.000403174 0.000741939 -0.000300023 -0.00123721 -0.00154963 0.000147786 -0.000591463 -0.00139491 -1.81984e-05 -6.01091e-05 0.000306436
internal_weight=0 7183.49 12770 5495.77 3957.49 3226 2151.77 7274.19 1074.23 1893.23 3067.53 3040.15 4844.35
internal_count=80000 28866 51134 22007 15869 12997 8684 29127 4313 7631 12288 12179 19390
cat_boundaries=0 1 2 3 4 5 6 7 8 9 10 11 12 13
cat_threshold=12 2 2 2 34 16 4 2 4 2 4 2 4
is_linear=0
shrinkage=0.1


Tree=21
num_leaves=14
num_cat=13
split_feature=0 1 2 1 0 0 1 1 1 2 1 2 1
split_gain=0.470405 0.126389 0.0895177 0.324959 0.0602417 0.0512526 0.0334973 0.0295671 0.0246389 0.0155389 0.0136997 0.00266443 0.00028677
threshold=0 1 2 3 4 5 6 7 8 9 10 11 12
decision_type=1 1 1 1 1 1 1 1 1 1 1 1 1
left_child=2 4 7 -4 11 8 9 -1 -3 -7 -5 -2 -9
right_child=1 5 3 10 -6 6 -8 12 -10 -11 -12 -13 -14
leaf_value=-0.0001516584964936673 -0.00010237953530405219 -0.00017807283189683683 0.001532050912275312 9.4646529835042026e-05 -0.00097563499841523587 -0.001377926153536843 -0.0024692788023585807 0.00030025448582636554 -0.0011758173002520023 -0.00058462818413438798 -0.00041861358639264763 0.00012793587219661292 0.00025159324594069071
leaf_weight=2429.8146641105413 2405.2621588408947 687.43122309446335 2428.1346288025379 2403.9302978813648 917.26749032735825 1601.0528575927019 258.44677318632603 2409.5748596787453 386.75029587745667 291.93718355894089 663.5944422185421 634.87647786736488 2434.8156605362892
leaf_count=9737 9637 2755 9719 9626 3690 6459 1053 9644 1558 1172 2662 2542 9746
internal_value=0 -0.000648106 0.000362862 0.000667756 -0.000270304 -0.00111363 -0.0013949 0.000133013 -0.000532347 -0.00125558 -1.63865e-05 -5.41045e-05 0.000275797
internal_weight=0 7183.02 12769.9 5495.66 3957.41 3225.62 2151.44 7274.21 1074.18 1892.99 3067.52 3040.14 4844.39
internal_count=80000 28866 51134 22007 15869 12997 8684 29127 4313 7631 12288 12179 19390
cat_boundaries=0 1 2 3 4 5 6 7 8 9 10 11 12 13
cat_threshold=12 2 2 2 34 16 4 2 4 2 4 2 4
is_linear=0
shrinkage=0.1


Tree=22
num_leaves=14
num_cat=13
split_feature=0 1 2 1 0 0 1 1 1 2 1 2 1
split_gain=0.381158 0.102332 0.0725133 0.263228 0.0489262 0.0415302 0.027157 0.0239485 0.0199613 0.012591 0.0110973 0.00215808 0.000232302
threshold=0 1 2 3 4 5 6 7 8 9 10 11 12
decision_type=1 1 1 1 1 1 1 1 1 1 1 1 1
left_child=2 4 7 -4 11 8 9 -1 -3 -7 -5 -2 -9
right_child=1 5 3 10 -6 6 -8 12 -10 -11 -12 -13 -14
leaf_value=-0.00013649216962515978 -9.2134805385007501e-05 -0.00016026016765059649 0.0013788980707475265 8.5188638348170152e-05 -0.00087919629668417045 -0.0012403015577697931 -0.0022231426941157939 0.00027022396712965272 -0.0010583450630107045 -0.00052618904984320697 -0.00037676136887129872 0.00011514362539013546 0.00022642731388776481
leaf_weight=2429.798849016428 2405.2521066665649 687.42588624358177 2428.0373068153858 2403.9377566874027 917.19985842704773 1600.8489110469818 258.36019067466259 2409.5923919081688 386.7119662463665 291.92687970399857 663.57956713438034 634.87901574373245 2434.8316354751587
leaf_count=9737 9637 2755 9719 9626 3690 6459 1053 9644 1558 1172 2662 2542 9746
internal_value=0 -0.000583468 0.000326577 0.000600994 -0.000243522 -0.00100238 -0.0012556 0.000119709 -0.000479129 -0.00113016 -1.47425e-05 -4.86881e-05 0.000248212
internal_weight=0 7182.6 12769.8 5495.55 3957.33 3225.27 2151.14 7274.22 1074.14 1892.78 3067.52 3040.13 4844.42
internal_count=80000 28866 51134 22007 15869 12997 8684 29127 4313 7631 12288 12179 19390
cat_boundaries=0 1 2 3 4 5 6 7 8 9 10 11 12 13
cat_threshold=12 2 2 2 34 16 4 2 4 2 4 2 4
is_linear=0
shrinkage=0.1


Tree=23
num_leaves=14
num_cat=13
split_feature=0 1 2 1 0 0 1 1 1 2 1 2 1
split_gain=0.308844 0.0828501 0.0587382 0.213227 0.0397341 0.0336501 0.0220151 0.0193991 0.0161711 0.0102019 0.00898861 0.00174795 0.000188201
threshold=0 1 2 3 4 5 6 7 8 9 10 11 12
decision_type=1 1 1 1 1 1 1 1 1 1 1 1 1
left_child=2 4 7 -4 11 8 9 -1 -3 -7 -5 -2 -9
right_child=1 5 3 10 -6 6 -8 12 -10 -11 -12 -13 -14
leaf_value=-0.00012284801057587741 -8.2923079747783767e-05 -0.00014423248239415476 0.0012410586643587579 7.6667808016177218e-05 -0.00079227656470499486 -0.0011163994661728413 -0.002001469605454683 0.00024320543686105333 -0.00095259548719672186 -0.00047358317929274419 -0.00033908474915966092 0.00010362252285105167 0.00020378468395343023
leaf_weight=2429.7847750335932 2405.2430597096682 687.42104202508926 2427.9472260475159 2403.9444983005524 917.13854983448982 1600.6641175746918 258.28161053359509 2409.6080559492111 386.67723509669304 291.91757130622864 663.56608039140701 634.88128846883774 2434.8460129201412
leaf_count=9737 9637 2755 9719 9626 3690 6459 1053 9644 1558 1172 2662 2542 9746
internal_value=0 -0.000525273 0.000293923 0.000540906 -0.000219397 -0.000902233 -0.00113018 0.000107739 -0.00043123 -0.00101725 -1.32681e-05 -4.38219e-05 0.000223392
internal_weight=0 7182.22 12769.7 5495.46 3957.26 3224.96 2150.86 7274.24 1074.1 1892.58 3067.51 3040.12 4844.45
internal_count=80000 28866 51134 22007 15869 12997 8684 29127 4313 7631 12288 12179 19390
cat_boundaries=0 1 2 3 4 5 6 7 8 9 10 11 12 13
cat_threshold=12 2 2 2 34 16 4 2 4 2 4 2 4
is_linear=0
shrinkage=0.1


Tree=24
num_leaves=14
num_cat=13
split_feature=0 1 2 1 0 0 1 1 1 2 1 2 1
split_gain=0.25025 0.0670776 0.0475794 0.172726 0.03227 0.0272642 0.017845 0.0157126 0.0131006 0.00826609 0.00728073 0.00141581 0.000152357
threshold=0 1 2 3 4 5 6 7 8 9 10 11 12
decision_type=1 1 1 1 1 1 1 1 1 1 1 1 1
left_child=2 4 7 -4 11 8 9 -1 -3 -7 -5 -2 -9
right_child=1 5 3 10 -6 6 -8 12 -10 -11 -12 -13 -14
leaf_value=-0.00011055993864120741 -7.4630205870046388e-05 -0.00012981639295898609 0.0011169971023600603 6.8994713699631455e-05 -0.00071395725829069871 -0.0010048741469211885 -0.0018018451973883358 0.00021887751445475373 -0.00085741816315876946 -0.00042623747902652547 -0.00030518404665146113 9.3258622883515648e-05 0.00018340893252792676
leaf_weight=2429.7718617916107 2405.2350179702044 687.41669043898582 2427.8642416745424 2403.9505227208138 917.08301469683647 1600.4967447370291 258.21035805344582 2409.6221392154694 386.64577740430832 291.90915358066559 663.55394232273102 634.8833339214325 2434.8589380979538
leaf_count=9737 9637 2755 9719 9626 3690 6459 1053 9644 1558 1172 2662 2542 9746
internal_value=0 -0.000472884 0.000264532 0.000486823 -0.000197663 -0.00081209 -0.00101729 9.69655e-05 -0.000388128 -0.000915618 -1.19466e-05 -3.94394e-05 0.000201051
internal_weight=0 7181.88 12769.6 5495.37 3957.2 3224.68 2150.62 7274.25 1074.06 1892.41 3067.5 3040.12 4844.48
internal_count=80000 28866 51134 22007 15869 12997 8684 29127 4313 7631 12288 12179 19390
cat_boundaries=0 1 2 3 4 5 6 7 8 9 10 11 12 13
cat_threshold=12 2 2 2 34 16 4 2 4 2 4 2 4
is_linear=0
shrinkage=0.1


Tree=25
num_leaves=14
num_cat=13
split_feature=0 1 2 1 0 0 1 1 1 2 1 2 1
split_gain=0.20277 0.0543057 0.0385404 0.139911 0.0262066 0.0220905 0.014464 0.0127279 0.010613 0.00669733 0.00589756 0.00114691 0.000123501
threshold=0 1 2 3 4 5 6 7 8 9 10 11 12
decision_type=1 1 1 1 1 1 1 1 1 1 1 1 1
left_child=2 4 7 -4 11 8 9 -1 -3 -7 -5 -2 -9
right_child=1 5 3 10 -6 6 -8 12 -10 -11 -12 -13 -14
leaf_value=-9.9512707160351847e-05 -6.7173117253500843e-05 -0.00011682817421913632 0.0010053205886900432 6.2096972260031392e-05 -0.00064336579801898587 -0.00090447883186456574 -0.0016220929712151022 0.00019699490710158287 -0.00077173117198074963 -0.00038362645771778021 -0.00027467083583618447 8.3933305712568837e-05 0.00016506139906110484
leaf_weight=2429.7603994756937 2405.2276942431927 687.41274937987328 2427.7879192233086 2403.9558299481869 917.03275814652443 1600.3452525883913 258.14577421545982 2409.6346417069435 386.6173377931118 291.90153920650482 663.54299426078796 634.88518998026848 2434.8705562353134
leaf_count=9737 9637 2755 9719 9626 3690 6459 1053 9644 1558 1172 2662 2542 9746
internal_value=0 -0.000425717 0.000238078 0.000438144 -0.000178083 -0.000730943 -0.000915665 8.72661e-05 -0.00034932 -0.000824131 -1.07506e-05 -3.54999e-05 0.000180945
internal_weight=0 7181.57 12769.6 5495.29 3957.15 3224.42 2150.39 7274.27 1074.03 1892.25 3067.5 3040.11 4844.51
internal_count=80000 28866 51134 22007 15869 12997 8684 29127 4313 7631 12288 12179 19390
cat_boundaries=0 1 2 3 4 5 6 7 8 9 10 11 12 13
cat_threshold=12 2 2 2 34 16 4 2 4 2 4 2 4
is_linear=0
shrinkage=0.1


Tree=26
num_leaves=14
num_cat=13
split_feature=0 1 2 1 0 0 1 1 1 2 1 2 1
split_gain=0.164297 0.0439664 0.0312189 0.113334 0.0212826 0.0178974 0.0117228 0.0103093 0.00859754 0.00542613 0.00477697 0.000928988 0.000100066
threshold=0 1 2 3 4 5 6 7 8 9 10 11 12
decision_type=1 1 1 1 1 1 1 1 1 1 1 1 1
left_child=2 4 7 -4 11 8 9 -1 -3 -7 -5 -2 -9
right_child=1 5 3 10 -6 6 -8 12 -10 -11 -12 -13 -14
leaf_value=-8.9558897885567233e-05 -6.0451068448781387e-05 -0.00010514736567592876 0.00090481973338386716 5.5885256457687617e-05 -0.0005797457447097316 -0.00081410287545745363 -0.0014602298265248375 0.00017729563828980323 -0.00069460887518771428 -0.00034527225696588519 -0.00024720575126882408 7.554421277767026e-05 0.00014855116327597208
leaf_weight=2429.7499528080225 2405.2210885286331 687.40921884775162 2427.717969045043 2403.960706859827 916.98723033070564 1600.2081974297762 258.08730983734131 2409.6459945440292 386.59161445498466 291.89467579126358 663.53307753801346 634.88685664534569 2434.8808673322201
leaf_count=9737 9637 2755 9719 9626 3690 6459 1053 9644 1558 1172 2662 2542 9746
internal_value=0 -0.000383248 0.000214272 0.000394337 -0.000160434 -0.000657899 -0.000824179 7.85395e-05 -0.000314399 -0.000741776 -9.6767e-06 -3.19452e-05 0.000162849
internal_weight=0 7181.29 12769.5 5495.21 3957.1 3224.19 2150.19 7274.28 1074 1892.1 3067.49 3040.11 4844.53
internal_count=80000 28866 51134 22007 15869 12997 8684 29127 4313 7631 12288 12179 19390
cat_boundaries=0 1 2 3 4 5 6 7 8 9 10 11 12 13
cat_threshold=12 2 2 2 34 16 4 2 4 2 4 2 4
is_linear=0
shrinkage=0.1


Tree=27
num_leaves=14
num_cat=13
split_feature=0 1 2 1 0 0 1 1 1 2 1 2 1
split_gain=0.133126 0.0355939 0.0252874 0.0918032 0.0172836 0.0144999 0.00950057 0.00835068 0.00696466 0.00439614 0.00386953 0.000752461 8.09874e-05
threshold=0 1 2 3 4 5 6 7 8 9 10 11 12
decision_type=1 1 1 1 1 1 1 1 1 1 1 1 1
left_child=2 4 7 -4 11 8 9 -1 -3 -7 -5 -2 -9
right_child=1 5 3 10 -6 6 -8 12 -10 -11 -12 -13 -14
leaf_value=-8.0601950487457725e-05 -5.4409110833154985e-05 -9.4636927637461576e-05 0.00081435720766967793 5.030027860013543e-05 -0.00052242213097549578 -0.00073275217635737405 -0.0013144893377250234 0.00015956441790861478 -0.00062518804710914606 -0.00031075113943350864 -0.00022248949558084153 6.7985035893819012e-05 0.00013370504219617935
leaf_weight=2429.7406668812037 2405.2150572240353 687.40601673722267 2427.6539566665888 2403.9650100171566 916.94604635238647 1600.0843280553818 258.03440004587173 2409.656054019928 386.56835201382637 291.88847601413727 663.5241524875164 634.88833391666412 2434.8901618421078
leaf_count=9737 9637 2755 9719 9626 3690 6459 1053 9644 1558 1172 2662 2542 9746
internal_value=0 -0.000345019 0.000192847 0.000354908 -0.000144542 -0.000592151 -0.000741828 7.06888e-05 -0.00028297 -0.000667647 -8.70648e-06 -2.8754e-05 0.000146567
internal_weight=0 7181.03 12769.4 5495.14 3957.05 3223.98 2150.01 7274.29 1073.97 1891.97 3067.49 3040.1 4844.55
internal_count=80000 28866 51134 22007 15869 12997 8684 29127 4313 7631 12288 12179 19390
cat_boundaries=0 1 2 3 4 5 6 7 8 9 10 11 12 13
cat_threshold=12 2 2 2 34 16 4 2 4 2 4 2 4
is_linear=0
shrinkage=0.1


Tree=28
num_leaves=14
num_cat=13
split_feature=0 1 2 1 0 0 1 1 1 2 1 2 1
split_gain=0.107867 0.0288165 0.020484 0.0743664 0.0140363 0.0117472 0.00769911 0.00676418 0.00564182 0.00356156 0.00313429 0.000609483 6.56611e-05
threshold=0 1 2 3 4 5 6 7 8 9 10 11 12
decision_type=1 1 1 1 1 1 1 1 1 1 1 1 1
left_child=2 4 7 -4 11 8 9 -1 -3 -7 -5 -2 -9
right_child=1 5 3 10 -6 6 -8 12 -10 -11 -12 -13 -14
leaf_value=-7.2546353153852129e-05 -4.8964156159946398e-05 -8.5177448663044245e-05 0.00073295005180357066 4.5264266138491825e-05 -0.00047076253745594645 -0.00065952784082732175 -0.0011832700547073228 0.0001436108792662285 -0.00056270067947017421 -0.00027968555532338309 -0.00020024666056504367 6.1189581500023033e-05 0.00012032661425997807
leaf_weight=2429.7322515100241 2405.2097439318895 687.40314304828644 2427.595447614789 2403.9690262973309 916.90882131457329 1599.9723932594061 257.98655842244625 2409.6651075482368 386.5473647415638 291.88288748264313 663.5161001086235 634.88965967297554 2434.8985849916935
leaf_count=9737 9637 2755 9719 9626 3690 6459 1053 9644 1558 1172 2662 2542 9746
internal_value=0 -0.0003106 0.000173563 0.000319423 -0.000130218 -0.000532972 -0.000667701 6.3617e-05 -0.000254681 -0.000600924 -7.84127e-06 -2.58747e-05 0.000131908
internal_weight=0 7180.8 12769.4 5495.08 3957.01 3223.79 2149.84 7274.3 1073.95 1891.86 3067.49 3040.1 4844.56
internal_count=80000 28866 51134 22007 15869 12997 8684 29127 4313 7631 12288 12179 19390
cat_boundaries=0 1 2 3 4 5 6 7 8 9 10 11 12 13
cat_threshold=12 2 2 2 34 16 4 2 4 2 4 2 4
is_linear=0
shrinkage=0.1


Tree=29
num_leaves=14
num_cat=13
split_feature=0 1 2 1 0 0 1 1 1 2 1 2 1
split_gain=0.0874012 0.0233279 0.0165923 0.0602359 0.0113992 0.00951716 0.00623915 0.0054792 0.00457045 0.00288538 0.00253883 0.000493722 5.31439e-05
threshold=0 1 2 3 4 5 6 7 8 9 10 11 12
decision_type=1 1 1 1 1 1 1 1 1 1 1 1 1
left_child=2 4 7 -4 11 8 9 -1 -3 -7 -5 -2 -9
right_child=1 5 3 10 -6 6 -8 12 -10 -11 -12 -13 -14
leaf_value=-6.5291389451454561e-05 -4.4068454618318955e-05 -7.6649516765992767e-05 0.00065966350749350664 4.0747193572775506e-05 -0.00042421630245897566 -0.00059361125001674273 -0.0010651331938566404 0.000129249690358837 -0.00050645483900942675 -0.00025171846697312982 -0.00018021572766949368 5.5073943954197678e-05 0.00010830207894619236
leaf_weight=2429.7245616018772 2405.2048614472151 687.40055672824383 2427.5421522408724 2403.9724688231945 916.87517032027245 1599.8712380826473 257.94331423938274 2409.6732988357544 386.52839726209641 291.87784034013748 663.50884106755257 634.89087179303169 2434.9061367809772
leaf_count=9737 9637 2755 9719 9626 3690 6459 1053 9644 1558 1172 2662 2542 9746
internal_value=0 -0.000279614 0.00015621 0.000287486 -0.000117318 -0.000479698 -0.000600973 5.72584e-05 -0.000229211 -0.000540861 -7.048e-06 -2.3287e-05 0.000118721
internal_weight=0 7180.59 12769.3 5495.02 3956.97 3223.62 2149.69 7274.3 1073.93 1891.75 3067.48 3040.1 4844.58
internal_count=80000 28866 51134 22007 15869 12997 8684 29127 4313 7631 12288 12179 19390
cat_boundaries=0 1 2 3 4 5 6 7 8 9 10 11 12 13
cat_threshold=12 2 2 2 34 16 4 2 4 2 4 2 4
is_linear=0
shrinkage=0.1


Tree=30
num_leaves=14
num_cat=13
split_feature=0 1 2 1 0 0 1 1 1 2 1 2 1
split_gain=0.0708191 0.0188846 0.0134406 0.048794 0.00925713 0.00771015 0.00505575 0.0044381 0.00370229 0.00233748 0.00205663 0.000399924 4.3031e-05
threshold=0 1 2 3 4 5 6 7 8 9 10 11 12
decision_type=1 1 1 1 1 1 1 1 1 1 1 1 1
left_child=2 4 7 -4 11 8 9 -1 -3 -7 -5 -2 -9
right_child=1 5 3 10 -6 6 -8 12 -10 -11 -12 -13 -14
leaf_value=-5.8764373290824435e-05 -3.9668029358398498e-05 -6.8987729870799373e-05 0.0005937165430847228 3.6672060113960214e-05 -0.0003822690039865366 -0.00053428346353437525 -0.00095877574545610844 0.000116319934920337 -0.00045583002303050188 -0.00022655515228032325 -0.00016220422209083188 4.9561105040123777e-05 9.7470522627513627e-05
leaf_weight=2429.7177422493696 2405.2005533725023 687.39821672439575 2427.493636071682 2403.9756244719028 916.84476345777512 1599.7799963057041 257.90422815084457 2409.6806278824806 386.51126384735107 291.87328219413757 663.50229603052139 634.89197027683258 2434.912817209959
leaf_count=9737 9637 2755 9719 9626 3690 6459 1053 9644 1558 1172 2662 2542 9746
internal_value=0 -0.000251723 0.000140589 0.000258742 -0.0001057 -0.000431752 -0.000540913 5.153e-05 -0.000206295 -0.000486802 -6.34532e-06 -2.09645e-05 0.000106846
internal_weight=0 7180.4 12769.3 5494.97 3956.94 3223.47 2149.56 7274.31 1073.91 1891.65 3067.48 3040.09 4844.59
internal_count=80000 28866 51134 22007 15869 12997 8684 29127 4313 7631 12288 12179 19390
cat_boundaries=0 1 2 3 4 5 6 7 8 9 10 11 12 13
cat_threshold=12 2 2 2 34 16 4 2 4 2 4 2 4
is_linear=0
shrinkage=0.1


Tree=31
num_leaves=14
num_cat=13
split_feature=0 1 2 1 0 0 1 1 1 2 1 2 1
split_gain=0.0573814 0.0152877 0.0108864 0.0395248 0.00751729 0.00624571 0.0040966 0.00359414 0.00299904 0.00189364 0.00166574 0.000323945 3.48607e-05
threshold=0 1 2 3 4 5 6 7 8 9 10 11 12
decision_type=1 1 1 1 1 1 1 1 1 1 1 1 1
left_child=2 4 7 -4 11 8 9 -1 -3 -7 -5 -2 -9
right_child=1 5 3 10 -6 6 -8 12 -10 -11 -12 -13 -14
leaf_value=-5.2877044120257993e-05 -3.5703675151774257e-05 -6.2095483252134267e-05 0.0005343525870567463 3.2996519083972373e-05 -0.00034445985917728062 -0.00048087743670549181 -0.00086301679086271059 0.00010468455667870434 -0.00041026867620903108 -0.00020389898243667421 -0.00014598576237025721 4.4603332021897761e-05 8.7718740339886228e-05
leaf_weight=2429.7116483598948 2405.1966761052608 687.39612303674221 2427.4494646340609 2403.9784932434559 916.81727081537247 1599.6975129693747 257.86893926560879 2409.6870946884155 386.49582520127296 291.86917811632156 663.49638566374779 634.89291724562645 2434.9189167320728
leaf_count=9737 9637 2755 9719 9626 3690 6459 1053 9644 1558 1172 2662 2542 9746
internal_value=0 -0.000226609 0.000126529 0.000232865 -9.52278e-05 -0.000388594 -0.000486847 4.63781e-05 -0.000185675 -0.00043814 -5.71744e-06 -1.88703e-05 9.61575e-05
internal_weight=0 7180.23 12769.2 5494.92 3956.91 3223.33 2149.44 7274.32 1073.89 1891.57 3067.47 3040.09 4844.61
internal_count=80000 28866 51134 22007 15869 12997 8684 29127 4313 7631 12288 12179 19390
cat_boundaries=0 1 2 3 4 5 6 7 8 9 10 11 12 13
cat_threshold=12 2 2 2 34 16 4 2 4 2 4 2 4
is_linear=0
shrinkage=0.1


Tree=32
num_leaves=14
num_cat=13
split_feature=0 1 2 1 0 0 1 1 1 2 1 2 1
split_gain=0.0464934 0.0123765 0.00881872 0.0320154 0.00610482 0.00505989 0.00331941 0.00291136 0.00242931 0.0015341 0.00134925 0.000262421 2.82081e-05
threshold=0 1 2 3 4 5 6 7 8 9 10 11 12
decision_type=1 1 1 1 1 1 1 1 1 1 1 1 1
left_child=2 4 7 -4 11 8 9 -1 -3 -7 -5 -2 -9
right_child=1 5 3 10 -6 6 -8 12 -10 -11 -12 -13 -14
leaf_value=-4.7592031513041818e-05 -3.2127634013181778e-05 -5.5884544568517337e-05 0.00048092802411855724 2.9702859761191353e-05 -0.00031039073745918201 -0.00043281327259750012 -0.00077682272432220566 9.4212048037645285e-05 -0.00036925013444905454 -0.00018350933437874582 -0.00013138176026018244 4.0152152550108062e-05 7.895069526823347e-05
leaf_weight=2429.7059897482395 2405.1930860430002 687.39423461258411 2427.4093482792377 2403.9810751378536 916.79247245192528 1599.623210594058 257.83707100152969 2409.6929866671562 386.48187237977982 291.86549317836761 663.49107030034065 634.89378845691681 2434.9242901206017
leaf_count=9737 9637 2755 9719 9626 3690 6459 1053 9644 1558 1172 2662 2542 9746
internal_value=0 -0.000203998 0.000113878 0.000209585 -8.57869e-05 -0.00034975 -0.000438189 4.17395e-05 -0.000167107 -0.000394345 -5.13958e-06 -1.69768e-05 8.65416e-05
internal_weight=0 7180.08 12769.2 5494.88 3956.88 3223.2 2149.33 7274.32 1073.88 1891.49 3067.47 3040.09 4844.62
internal_count=80000 28866 51134 22007 15869 12997 8684 29127 4313 7631 12288 12179 19390
cat_boundaries=0 1 2 3 4 5 6 7 8 9 10 11 12 13
cat_threshold=12 2 2 2 34 16 4 2 4 2 4 2 4
is_linear=0
shrinkage=0.1


Tree=33
num_leaves=14
num_cat=13
split_feature=0 1 2 1 0 0 1 1 1 2 1 2 1
split_gain=0.0376726 0.010019 0.00714282 0.0259336 0.00495747 0.00409908 0.00268943 0.00235859 0.00196803 0.00124286 0.00109284 0.000212566 2.28881e-05
threshold=0 1 2 3 4 5 6 7 8 9 10 11 12
decision_type=1 1 1 1 1 1 1 1 1 1 1 1 1
left_child=2 4 7 -4 11 8 9 -1 -3 -7 -5 -2 -9
right_child=1 5 3 10 -6 6 -8 12 -10 -11 -12 -13 -14
leaf_value=-4.2838715597486275e-05 -2.892125778207708e-05 -5.029467237799107e-05 0.00043284067227560713 2.672563814382625e-05 -0.00027969542502301385 -0.00038955657226712621 -0.00069922413088650598 8.4800874295841997e-05 -0.00033234733175633246 -0.00016515979634002735 -0.00011824749312420704 3.6131284497314762e-05 7.1053789294163948e-05
leaf_weight=2429.701056599617 2405.1899267882109 687.39251039922237 2427.3729973584414 2403.9833701550961 916.77009344100952 1599.5561267137527 257.80832523107529 2409.6983038187027 386.46928930282593 291.86215752363205 663.48627060651779 634.89458391070366 2434.9292278289795
leaf_count=9737 9637 2755 9719 9626 3690 6459 1053 9644 1558 1172 2662 2542 9746
internal_value=0 -0.00018365 0.000102489 0.000188624 -7.72924e-05 -0.000314792 -0.000394395 3.75664e-05 -0.000150401 -0.00035493 -4.6317e-06 -1.52853e-05 7.78915e-05
internal_weight=0 7179.94 12769.2 5494.84 3956.85 3223.09 2149.23 7274.33 1073.86 1891.42 3067.47 3040.08 4844.63
internal_count=80000 28866 51134 22007 15869 12997 8684 29127 4313 7631 12288 12179 19390
cat_boundaries=0 1 2 3 4 5 6 7 8 9 10 11 12 13
cat_threshold=12 2 2 2 34 16 4 2 4 2 4 2 4
is_linear=0
shrinkage=0.1


Tree=34
num_leaves=14
num_cat=13
split_feature=0 1 2 1 0 0 1 1 1 2 1 2 1
split_gain=0.0305241 0.00811038 0.00578629 0.0210056 0.00402623 0.00332064 0.00217908 0.00191045 0.0015942 0.00100677 0.000885356 0.000172176 1.85149e-05
threshold=0 1 2 3 4 5 6 7 8 9 10 11 12
decision_type=1 1 1 1 1 1 1 1 1 1 1 1 1
left_child=2 4 7 -4 11 8 9 -1 -3 -7 -5 -2 -9
right_child=1 5 3 10 -6 6 -8 12 -10 -11 -12 -13 -14
leaf_value=-3.8556873287599781e-05 -2.602533778088536e-05 -4.5260444555857442e-05 0.00038956065542885263 2.40640822069292e-05 -0.00025204032245217957 -0.00035060983275268061 -0.00062936836435275375 7.6314537444255781e-05 -0.000299117685827786 -0.00014864631836983768 -0.00010642326342642322 3.2521544905997551e-05 6.3950331490537178e-05
leaf_weight=2429.6965587288141 2405.1870547384024 687.39099144935608 2427.3399773985147 2403.9855217337608 916.74985885620117 1599.4955876022577 257.78237244486809 2409.703046143055 386.4579598903656 291.85913622379303 663.48198658227921 634.895303606987 2434.9335846304893
leaf_count=9737 9637 2755 9719 9626 3690 6459 1053 9644 1558 1172 2662 2542 9746
internal_value=0 -0.000165325 9.22413e-05 0.000169767 -6.96331e-05 -0.000283318 -0.000354967 3.38077e-05 -0.000135358 -0.000319444 -4.15985e-06 -1.37531e-05 7.01002e-05
internal_weight=0 7179.82 12769.1 5494.81 3956.83 3222.99 2149.14 7274.33 1073.85 1891.35 3067.47 3040.08 4844.64
internal_count=80000 28866 51134 22007 15869 12997 8684 29127 4313 7631 12288 12179 19390
cat_boundaries=0 1 2 3 4 5 6 7 8 9 10 11 12 13
cat_threshold=12 2 2 2 34 16 4 2 4 2 4 2 4
is_linear=0
shrinkage=0.1


Tree=35
num_leaves=14
num_cat=13
split_feature=0 1 2 1 0 0 1 1 1 2 1 2 1
split_gain=0.0247326 0.0065657 0.00468674 0.0170151 0.0032695 0.00268992 0.00176539 0.00154721 0.00129132 0.000815574 0.000717019 0.000139462 1.4988e-05
threshold=0 1 2 3 4 5 6 7 8 9 10 11 12
decision_type=1 1 1 1 1 1 1 1 1 1 1 1 1
left_child=2 4 7 -4 11 8 9 -1 -3 -7 -5 -2 -9
right_child=1 5 3 10 -6 6 -8 12 -10 -11 -12 -13 -14
leaf_value=-3.4693542969727876e-05 -2.3422210499196203e-05 -4.0739268426918867e-05 0.00035061025436844575 2.1653519055820776e-05 -0.00022710832163225534 -0.00031556256333425264 -0.00056648139445767895 6.8680913732108666e-05 -0.00026921459870087207 -0.00013378389027241674 -9.5775617113855307e-05 2.9269785071088702e-05 5.7556510383373621e-05
leaf_weight=2429.6924961358309 2405.1844698935747 687.38959565758705 2427.3101435750723 2403.9873864352703 916.73160374164581 1599.4410157799721 257.7589615881443 2409.7073573470116 386.44772163033485 291.85642927885056 663.4780992269516 634.89594754576683 2434.9375057518482
leaf_count=9737 9637 2755 9719 9626 3690 6459 1053 9644 1558 1172 2662 2542 9746
internal_value=0 -0.00014883 8.30185e-05 0.000152791 -6.27323e-05 -0.000254996 -0.000319484 3.04293e-05 -0.000121827 -0.000287511 -3.74584e-06 -1.23772e-05 6.30897e-05
internal_weight=0 7179.71 12769.1 5494.78 3956.81 3222.89 2149.06 7274.34 1073.84 1891.3 3067.47 3040.08 4844.64
internal_count=80000 28866 51134 22007 15869 12997 8684 29127 4313 7631 12288 12179 19390
cat_boundaries=0 1 2 3 4 5 6 7 8 9 10 11 12 13
cat_threshold=12 2 2 2 34 16 4 2 4 2 4 2 4
is_linear=0
shrinkage=0.1


Tree=36
num_leaves=14
num_cat=13
split_feature=0 1 2 1 0 0 1 1 1 2 1 2 1
split_gain=0.0200393 0.00531487 0.00379643 0.0137829 0.00265495 0.00217909 0.00143029 0.00125337 0.00104607 0.000660685 0.000580913 0.000112962 1.21354e-05
threshold=0 1 2 3 4 5 6 7 8 9 10 11 12
decision_type=1 1 1 1 1 1 1 1 1 1 1 1 1
left_child=2 4 7 -4 11 8 9 -1 -3 -7 -5 -2 -9
right_child=1 5 3 10 -6 6 -8 12 -10 -11 -12 -13 -14
leaf_value=-3.1230035586887194e-05 -2.1081779128217981e-05 -3.6660546649953891e-05 0.00031555488111042069 1.9487787236364013e-05 -0.00020464322981121879 -0.00028401544895492059 -0.00050987861386641057 6.1810679431304478e-05 -0.00024230002750579591 -0.00012040507211290332 -8.6210270148573883e-05 2.6340572094520993e-05 5.1800744653629217e-05
leaf_weight=2429.6888688206673 2405.1821722537279 687.38836407661438 2427.283061414957 2403.9891076982021 916.71510815620422 1599.3918337672949 257.73785729706287 2409.711093723774 386.43852809071541 291.85400176048279 663.47456887364388 634.89651572704315 2434.9411364197731
leaf_count=9737 9637 2755 9719 9626 3690 6459 1053 9644 1558 1172 2662 2542 9746
internal_value=0 -0.000133981 7.4715e-05 0.000137512 -5.65175e-05 -0.000229502 -0.000287546 2.73837e-05 -0.000109643 -0.000258767 -3.37409e-06 -1.11413e-05 5.67796e-05
internal_weight=0 7179.6 12769.1 5494.75 3956.79 3222.81 2148.98 7274.34 1073.83 1891.25 3067.46 3040.08 4844.65
internal_count=80000 28866 51134 22007 15869 12997 8684 29127 4313 7631 12288 12179 19390
cat_boundaries=0 1 2 3 4 5 6 7 8 9 10 11 12 13
cat_threshold=12 2 2 2 34 16 4 2 4 2 4 2 4
is_linear=0
shrinkage=0.1


Tree=37
num_leaves=14
num_cat=13
split_feature=0 1 2 1 0 0 1 1 1 2 1 2 1
split_gain=0.0162366 0.00430275 0.00307493 0.0111638 0.0021561 0.00176524 0.00115873 0.001015 0.000847268 0.000535221 0.000470463 9.14903e-05 9.85425e-06
threshold=0 1 2 3 4 5 6 7 8 9 10 11 12
decision_type=1 1 1 1 1 1 1 1 1 1 1 1 1
left_child=2 4 7 -4 11 8 9 -1 -3 -7 -5 -2 -9
right_child=1 5 3 10 -6 6 -8 12 -10 -11 -12 -13 -14
leaf_value=-2.8100927615884064e-05 -1.8968713875982188e-05 -3.2999330818043458e-05 0.0002839952407154976 1.7536861297128914e-05 -0.00018440158124022039 -0.00025562559473345264 -0.00045892691369656119 5.5632255701373912e-05 -0.00021807079642420805 -0.00010836634488179116 -7.7583762074645988e-05 2.3709307289805905e-05 4.661205818482519e-05
leaf_weight=2429.6855316907167 2405.180161818862 687.38725565373898 2427.2585860937834 2403.9905420839787 916.70026212930679 1599.3475603312254 257.71882420778275 2409.7145426869392 386.43021675944328 291.85180127620697 663.47143518924713 634.89700815081596 2434.944331407547
leaf_count=9737 9637 2755 9719 9626 3690 6459 1053 9644 1558 1172 2662 2542 9746
internal_value=0 -0.000120612 6.72422e-05 0.000123758 -5.0914e-05 -0.00020656 -0.000258803 2.46454e-05 -9.86813e-05 -0.0002329 -3.03709e-06 -1.00228e-05 5.10987e-05
internal_weight=0 7179.51 12769.1 5494.72 3956.78 3222.74 2148.92 7274.34 1073.82 1891.2 3067.46 3040.08 4844.66
internal_count=80000 28866 51134 22007 15869 12997 8684 29127 4313 7631 12288 12179 19390
cat_boundaries=0 1 2 3 4 5 6 7 8 9 10 11 12 13
cat_threshold=12 2 2 2 34 16 4 2 4 2 4 2 4
is_linear=0
shrinkage=0.1


Tree=38
num_leaves=14
num_cat=13
split_feature=0 1 2 1 0 0 1 1 1 2 1 2 1
split_gain=0.0131566 0.00348288 0.00249059 0.00904245 0.00175098 0.00142987 0.000938761 0.000822188 0.000686317 0.000433517 0.000381156 7.411e-05 7.98614e-06
threshold=0 1 2 3 4 5 6 7 8 9 10 11 12
decision_type=1 1 1 1 1 1 1 1 1 1 1 1 1
left_child=2 4 7 -4 11 8 9 -1 -3 -7 -5 -2 -9
right_child=1 5 3 10 -6 6 -8 12 -10 -11 -12 -13 -14
leaf_value=-2.5288564461752912e-05 -1.707581673789631e-05 -2.9702676004178861e-05 0.00025559662614921865 1.5788420596425416e-05 -0.00016617002311899659 -0.00023006744381855247 -0.00041306532276597844 5.0074073726045514e-05 -0.00019627170781455453 -9.7535370170760439e-05 -6.9829371145488175e-05 2.1335138962812603e-05 4.1953764439585203e-05
leaf_weight=2429.6826298385859 2405.1782949864864 687.38622933626175 2427.2365727871656 2403.9919764697552 916.6868457198143 1599.3076179921627 257.70167402923107 2409.7177042365074 386.42271798849106 291.84981036186218 663.46857917308807 634.89750057458878 2434.9470907151699
leaf_count=9737 9637 2755 9719 9626 3690 6459 1053 9644 1558 1172 2662 2542 9746
internal_value=0 -0.000108581 6.05206e-05 0.000111384 -4.5874e-05 -0.000185909 -0.000232929 2.21843e-05 -8.88174e-05 -0.000209615 -2.73006e-06 -9.02429e-06 4.59928e-05
internal_weight=0 7179.43 12769 5494.7 3956.76 3222.67 2148.86 7274.35 1073.81 1891.16 3067.46 3040.08 4844.66
internal_count=80000 28866 51134 22007 15869 12997 8684 29127 4313 7631 12288 12179 19390
cat_boundaries=0 1 2 3 4 5 6 7 8 9 10 11 12 13
cat_threshold=12 2 2 2 34 16 4 2 4 2 4 2 4
is_linear=0
shrinkage=0.1


Tree=39
num_leaves=14
num_cat=13
split_feature=0 1 2 1 0 0 1 1 1 2 1 2 1
split_gain=0.010659 0.00281935 0.00201754 0.0073245 0.00142195 0.00115825 0.000760561 0.000666086 0.000555908 0.000351168 0.000308715 6.00211e-05 6.47128e-06
threshold=0 1 2 3 4 5 6 7 8 9 10 11 12
decision_type=1 1 1 1 1 1 1 1 1 1 1 1 1
left_child=2 4 7 -4 11 8 9 -1 -3 -7 -5 -2 -9
right_child=1 5 3 10 -6 6 -8 12 -10 -11 -12 -13 -14
leaf_value=-2.276802573101262e-05 -1.5362524449116875e-05 -2.6729043978619863e-05 0.0002300374490873071 1.4207050698481666e-05 -0.00014973062920760533 -0.00020705922063244211 -0.00037178126784445805 4.5064568213063597e-05 -0.00017664086787169732 -8.7776453371394661e-05 -6.284647702570957e-05 1.9205038170842331e-05 3.7754880771942608e-05
leaf_weight=2429.6800181716681 2405.1765717566013 687.38532617688179 2427.2165870219469 2403.9931239783764 916.67474895715714 1599.2715255171061 257.68620277941227 2409.7204346656799 386.41598534584045 291.84802901744843 663.4660008251667 634.89791724085808 2434.9497047960758
leaf_count=9737 9637 2755 9719 9626 3690 6459 1053 9644 1558 1172 2662 2542 9746
internal_value=0 -9.7742e-05 5.44653e-05 0.000100244 -4.13238e-05 -0.000167316 -0.000209636 1.99613e-05 -7.99316e-05 -0.000188651 -2.45899e-06 -8.11664e-06 4.13907e-05
internal_weight=0 7179.36 12769 5494.68 3956.75 3222.61 2148.81 7274.35 1073.8 1891.12 3067.46 3040.07 4844.67
internal_count=80000 28866 51134 22007 15869 12997 8684 29127 4313 7631 12288 12179 19390
cat_boundaries=0 1 2 3 4 5 6 7 8 9 10 11 12 13
cat_threshold=12 2 2 2 34 16 4 2 4 2 4 2 4
is_linear=0
shrinkage=0.1


Tree=40
num_leaves=14
num_cat=13
split_feature=0 1 2 1 0 0 1 1 1 2 1 2 1
split_gain=0.00863696 0.00228218 0.00163418 0.00593351 0.0011547 0.000938299 0.000616111 0.000539495 0.000450319 0.000284483 0.000249987 4.86021e-05 5.22879e-06
threshold=0 1 2 3 4 5 6 7 8 9 10 11 12
decision_type=1 1 1 1 1 1 1 1 1 1 1 1 1
left_child=2 4 7 -4 11 8 9 -1 -3 -7 -5 -2 -9
right_child=1 5 3 10 -6 6 -8 12 -10 -11 -12 -13 -14
leaf_value=-2.0487385335297428e-05 -1.3827853863800081e-05 -2.4053483270610248e-05 0.00020704298745107208 1.278120022402185e-05 -0.00013492192661000696 -0.00018636055545911121 -0.00033462074883870539 4.0556023199564661e-05 -0.0001589797463429324 -7.8998750745262755e-05 -5.6557041216359231e-05 1.7278155180443636e-05 3.3985436390601085e-05
leaf_weight=2429.6775515973568 2405.1749921292067 687.38450512290001 2427.1984839737415 2403.9942714869976 916.66380688548088 1599.2390904128551 257.67226924002171 2409.7228776812553 386.40990275144577 291.84642231464386 663.46370014548302 634.89829602837563 2434.9520284235477
leaf_count=9737 9637 2755 9719 9626 3690 6459 1053 9644 1558 1172 2662 2542 9746
internal_value=0 -8.79912e-05 4.90211e-05 9.02216e-05 -3.72316e-05 -0.000150588 -0.000188679 1.79678e-05 -7.19374e-05 -0.000169792 -2.21604e-06 -7.30754e-06 3.72536e-05
internal_weight=0 7179.29 12769 5494.66 3956.74 3222.55 2148.76 7274.35 1073.79 1891.09 3067.46 3040.07 4844.67
internal_count=80000 28866 51134 22007 15869 12997 8684 29127 4313 7631 12288 12179 19390
cat_boundaries=0 1 2 3 4 5 6 7 8 9 10 11 12 13
cat_threshold=12 2 2 2 34 16 4 2 4 2 4 2 4
is_linear=0
shrinkage=0.1


Tree=41
num_leaves=14
num_cat=13
split_feature=0 1 2 1 0 0 1 1 1 2 1 2 1
split_gain=0.00699791 0.00184758 0.00132385 0.00480566 0.000937757 0.000760036 0.00049912 0.000437035 0.000364779 0.000230454 0.000202571 3.93707e-05 4.24568e-06
threshold=0 1 2 3 4 5 6 7 8 9 10 11 12
decision_type=1 1 1 1 1 1 1 1 1 1 1 1 1
left_child=2 4 7 -4 11 8 9 -1 -3 -7 -5 -2 -9
right_child=1 5 3 10 -6 6 -8 12 -10 -11 -12 -13 -14
leaf_value=-1.8444567910310689e-05 -1.2442689912090306e-05 -2.1652106661376798e-05 0.00018633392269299688 1.1510101023339626e-05 -0.0001215778908107168 -0.00016773103590061412 -0.00030117797944461067 3.6500724427004149e-05 -0.00014308973160843388 -7.110019176509826e-05 -5.0906940479147133e-05 1.5553757014578856e-05 3.057997130147269e-05
leaf_weight=2429.6753752082586 2405.1736997067928 687.38376617431641 2427.1821188181639 2403.9952755570412 916.65396451950073 1599.2099276930094 257.65971650183201 2409.7251769900322 386.40442377328873 291.84497278928757 663.46163746714592 634.89863693714142 2434.9540615975857
leaf_count=9737 9637 2755 9719 9626 3690 6459 1053 9644 1558 1172 2662 2542 9746
internal_value=0 -7.92123e-05 4.41165e-05 8.11995e-05 -3.3541e-05 -0.000135535 -0.000169818 1.61668e-05 -6.47486e-05 -0.000152818 -1.99011e-06 -6.5742e-06 3.35249e-05
internal_weight=0 7179.23 12769 5494.64 3956.73 3222.5 2148.71 7274.35 1073.79 1891.05 3067.46 3040.07 4844.68
internal_count=80000 28866 51134 22007 15869 12997 8684 29127 4313 7631 12288 12179 19390
cat_boundaries=0 1 2 3 4 5 6 7 8 9 10 11 12 13
cat_threshold=12 2 2 2 34 16 4 2 4 2 4 2 4
is_linear=0
shrinkage=0.1


Tree=42
num_leaves=14
num_cat=13
split_feature=0 1 2 1 0 0 1 1 1 2 1 2 1
split_gain=0.00566997 0.00149539 0.0010721 0.00389278 0.000761496 0.000615646 0.000404316 0.000353939 0.000295447 0.000186646 0.000164028 3.19069e-05 3.43388e-06
threshold=0 1 2 3 4 5 6 7 8 9 10 11 12
decision_type=1 1 1 1 1 1 1 1 1 1 1 1 1
left_child=2 4 7 -4 11 8 9 -1 -3 -7 -5 -2 -9
right_child=1 5 3 10 -6 6 -8 12 -10 -11 -12 -13 -14
leaf_value=-1.6593876698188487e-05 -1.1200818139994181e-05 -1.9484442879150591e-05 0.00016770090871656555 1.0352946734056971e-05 -0.00010955171193328006 -0.00015095426960079028 -0.00027106461124194546 3.2850962932146955e-05 -0.00012877433504270331 -6.3991418918353895e-05 -4.5813151299436585e-05 1.4002561703196018e-05 2.7526254602851975e-05
leaf_weight=2429.6734890043736 2405.172407284379 687.38310933113098 2427.1674915552139 2403.9961361885071 916.64511188864708 1599.183556124568 257.64840334653854 2409.7271888852119 386.39950197935104 291.84368044137955 663.45977312326431 634.89893996715546 2434.9559495449066
leaf_count=9737 9637 2755 9719 9626 3690 6459 1053 9644 1558 1172 2662 2542 9746
internal_value=0 -7.13066e-05 3.97059e-05 7.30772e-05 -3.02183e-05 -0.000121978 -0.000152834 1.45538e-05 -5.82696e-05 -0.000137533 -1.79521e-06 -5.91779e-06 3.01747e-05
internal_weight=0 7179.17 12769 5494.62 3956.72 3222.46 2148.68 7274.36 1073.78 1891.03 3067.46 3040.07 4844.68
internal_count=80000 28866 51134 22007 15869 12997 8684 29127 4313 7631 12288 12179 19390
cat_boundaries=0 1 2 3 4 5 6 7 8 9 10 11 12 13
cat_threshold=12 2 2 2 34 16 4 2 4 2 4 2 4
is_linear=0
shrinkage=0.1


Tree=43
num_leaves=14
num_cat=13
split_feature=0 1 2 1 0 0 1 1 1 2 1 2 1
split_gain=0.00459428 0.00121049 0.000868626 0.00315342 0.000618399 0.000498729 0.000327524 0.000286773 0.000239348 0.000151186 0.000132857 2.58215e-05 2.77717e-06
threshold=0 1 2 3 4 5 6 7 8 9 10 11 12
decision_type=1 1 1 1 1 1 1 1 1 1 1 1 1
left_child=2 4 7 -4 11 8 9 -1 -3 -7 -5 -2 -9
right_child=1 5 3 10 -6 6 -8 12 -10 -11 -12 -13 -14
leaf_value=-1.4939469417821991e-05 -1.0078355284160148e-05 -1.7531777528770469e-05 0.00015094077854627995 9.3205168921182736e-06 -9.8716492986976242e-05 -0.00013586192421719031 -0.00024396834208540607 2.9565125413072213e-05 -0.00011590043591871184 -5.7594293336665231e-05 -4.1227854930470917e-05 1.2594555129865167e-05 2.4776571011366135e-05
leaf_weight=2429.671747893095 2405.171402066946 687.38249354064465 2427.1541677117348 2403.996996819973 916.63708403706551 1599.1598794609308 257.63820424675941 2409.7290570735931 386.3950677216053 291.84249287843704 663.4580674469471 634.89920511841774 2434.9576922655106
leaf_count=9737 9637 2755 9719 9626 3690 6459 1053 9644 1558 1172 2662 2542 9746
internal_value=0 -6.41916e-05 3.57373e-05 6.57754e-05 -2.72242e-05 -0.000109782 -0.000137554 1.30975e-05 -5.2441e-05 -0.000123783 -1.61256e-06 -5.32575e-06 2.71584e-05
internal_weight=0 7179.13 12769 5494.61 3956.71 3222.42 2148.64 7274.36 1073.78 1891 3067.46 3040.07 4844.69
internal_count=80000 28866 51134 22007 15869 12997 8684 29127 4313 7631 12288 12179 19390
cat_boundaries=0 1 2 3 4 5 6 7 8 9 10 11 12 13
cat_threshold=12 2 2 2 34 16 4 2 4 2 4 2 4
is_linear=0
shrinkage=0.1


Tree=44
num_leaves=14
num_cat=13
split_feature=0 1 2 1 0 0 1 1 1 2 1 2 1
split_gain=0.00372254 0.000979829 0.000703473 0.00255404 0.000502124 0.000403981 0.000265334 0.000232198 0.000193859 0.000122481 0.000107664 2.09268e-05 2.25163e-06
threshold=0 1 2 3 4 5 6 7 8 9 10 11 12
decision_type=1 1 1 1 1 1 1 1 1 1 1 1 1
left_child=2 4 7 -4 11 8 9 -1 -3 -7 -5 -2 -9
right_child=1 5 3 10 -6 6 -8 12 -10 -11 -12 -13 -14
leaf_value=-1.3440842018268553e-05 -9.0753029801057143e-06 -1.5781632658229472e-05 0.00013583958087340933 8.3897138040221143e-06 -8.8951013960171136e-05 -0.00012227904397357322 -0.00021958364361787392 2.6607158314134911e-05 -0.00010431085260742429 -5.1832164254557466e-05 -3.7114518614013229e-05 1.1335886032690335e-05 2.2295433936533569e-05
leaf_weight=2429.670151874423 2405.1703968495131 687.38195985555649 2427.1421472877264 2403.9977140128613 916.62988096475601 1599.1385127156973 257.6290250569582 2409.7306378483772 386.39105135202408 291.84144502878189 663.45656010508537 634.89943239092827 2434.9591445326805
leaf_count=9737 9637 2755 9719 9626 3690 6459 1053 9644 1558 1172 2662 2542 9746
internal_value=0 -5.77886e-05 3.21618e-05 5.9194e-05 -2.45293e-05 -9.88064e-05 -0.000123801 1.17877e-05 -4.71988e-05 -0.000111407 -1.45235e-06 -4.79678e-06 2.44401e-05
internal_weight=0 7179.08 12769 5494.6 3956.7 3222.38 2148.61 7274.36 1073.77 1890.98 3067.45 3040.07 4844.69
internal_count=80000 28866 51134 22007 15869 12997 8684 29127 4313 7631 12288 12179 19390
cat_boundaries=0 1 2 3 4 5 6 7 8 9 10 11 12 13
cat_threshold=12 2 2 2 34 16 4 2 4 2 4 2 4
is_linear=0
shrinkage=0.1


Tree=45
num_leaves=14
num_cat=13
split_feature=0 1 2 1 0 0 1 1 1 2 1 2 1
split_gain=0.00301657 0.000793222 0.000569803 0.00206879 0.000407814 0.000327267 0.000214921 0.000188146 0.000157024 9.92069e-05 8.72164e-05 1.69615e-05 1.82574e-06
threshold=0 1 2 3 4 5 6 7 8 9 10 11 12
decision_type=1 1 1 1 1 1 1 1 1 1 1 1 1
left_child=2 4 7 -4 11 8 9 -1 -3 -7 -5 -2 -9
right_child=1 5 3 10 -6 6 -8 12 -10 -11 -12 -13 -14
leaf_value=-1.2096957371185962e-05 -8.1677790695641148e-06 -1.4204947635083356e-05 0.00012225953479039369 7.5543783917713397e-06 -8.0156584331639888e-05 -0.00011005707969273011 -0.00019763280028850237 2.3953204099041144e-05 -9.3881104446343587e-05 -4.6655670649147747e-05 -3.3401405239467756e-05 1.0208105913959235e-05 2.0070612508908803e-05
leaf_weight=2429.6687009483576 2405.1693916320801 687.38150827586651 2427.1312854588032 2403.9982877671719 916.62339270114899 1599.1192633956671 257.62075594067574 2409.7320749163628 386.38745287060738 291.84048449993134 663.45521143078804 634.8996596634388 2434.9605967998505
leaf_count=9737 9637 2755 9719 9626 3690 6459 1053 9644 1558 1172 2662 2542 9746
internal_value=0 -5.20239e-05 2.89492e-05 5.3278e-05 -2.20989e-05 -8.893e-05 -0.000111427 1.06127e-05 -4.24802e-05 -0.000100272 -1.30389e-06 -4.31589e-06 2.20018e-05
internal_weight=0 7179.04 12768.9 5494.58 3956.69 3222.35 2148.58 7274.36 1073.77 1890.96 3067.45 3040.07 4844.69
internal_count=80000 28866 51134 22007 15869 12997 8684 29127 4313 7631 12288 12179 19390
cat_boundaries=0 1 2 3 4 5 6 7 8 9 10 11 12 13
cat_threshold=12 2 2 2 34 16 4 2 4 2 4 2 4
is_linear=0
shrinkage=0.1


Tree=46
num_leaves=14
num_cat=13
split_feature=0 1 2 1 0 0 1 1 1 2 1 2 1
split_gain=0.00244407 0.000642015 0.000461568 0.0016759 0.000331136 0.000265022 0.00017413 0.000152294 0.000127204 8.03569e-05 7.06071e-05 1.37378e-05 1.47942e-06
threshold=0 1 2 3 4 5 6 7 8 9 10 11 12
decision_type=1 1 1 1 1 1 1 1 1 1 1 1 1
left_child=2 4 7 -4 11 8 9 -1 -3 -7 -5 -2 -9
right_child=1 5 3 10 -6 6 -8 12 -10 -11 -12 -13 -14
leaf_value=-1.0884966872797684e-05 -7.3557827939452037e-06 -1.2789246942508919e-05 0.00011003360642716214 6.7906433677287466e-06 -7.2229297850252819e-05 -9.9049308236209038e-05 -0.0001778796963646 2.1549996213297625e-05 -8.4502039561932369e-05 -4.1988159824116606e-05 -3.0059624704072219e-05 9.1819338893463591e-06 1.8054991869806601e-05
leaf_weight=2429.6673951148987 2405.168673619628 687.38105669617653 2427.1215822249651 2403.9988615214825 916.61750927567482 1599.1019390076399 257.6133027523756 2409.7335119843483 386.38420262932777 291.8396287560463 663.453981757164 634.89984905719757 2434.9617586135864
leaf_count=9737 9637 2755 9719 9626 3690 6459 1053 9644 1558 1172 2662 2542 9746
internal_value=0 -4.68355e-05 2.60501e-05 4.79467e-05 -1.99134e-05 -8.00384e-05 -0.000100284 9.54669e-06 -3.82383e-05 -9.02427e-05 -1.17964e-06 -3.88919e-06 1.97934e-05
internal_weight=0 7179.01 12768.9 5494.57 3956.69 3222.32 2148.55 7274.36 1073.77 1890.94 3067.45 3040.07 4844.7
internal_count=80000 28866 51134 22007 15869 12997 8684 29127 4313 7631 12288 12179 19390
cat_boundaries=0 1 2 3 4 5 6 7 8 9 10 11 12 13
cat_threshold=12 2 2 2 34 16 4 2 4 2 4 2 4
is_linear=0
shrinkage=0.1


Tree=47
num_leaves=14
num_cat=13
split_feature=0 1 2 1 0 0 1 1 1 2 1 2 1
split_gain=0.00198015 0.000519636 0.000373904 0.00135735 0.00026895 0.000214649 0.000141053 0.000123478 0.000103042 6.50915e-05 5.71824e-05 1.11283e-05 1.19215e-06
threshold=0 1 2 3 4 5 6 7 8 9 10 11 12
decision_type=1 1 1 1 1 1 1 1 1 1 1 1 1
left_child=2 4 7 -4 11 8 9 -1 -3 -7 -5 -2 -9
right_child=1 5 3 10 -6 6 -8 12 -10 -11 -12 -13 -14
leaf_value=-9.803833248028492e-06 -6.6154330002534785e-06 -1.150546844115199e-05 9.9030967729496667e-05 6.1162165206029449e-06 -6.5085158368106109e-05 -8.9137824395420619e-05 -0.0001600880953690836 1.9396992353177223e-05 -7.6049149529681812e-05 -3.7781770113183364e-05 -2.7046331654844452e-05 8.2689352520799346e-06 1.6259601595173517e-05
leaf_weight=2429.6662343740463 2405.1679556071758 687.38064616918564 2427.1127479374409 2403.9994352757931 916.61223068833351 1599.0863470584154 257.60660272836685 2409.7346616387367 386.38130062818527 291.83886033296585 663.45287108421326 634.90003845095634 2434.9629204273224
leaf_count=9737 9637 2755 9719 9626 3690 6459 1053 9644 1558 1172 2662 2542 9746
internal_value=0 -4.21573e-05 2.34473e-05 4.31551e-05 -1.79367e-05 -7.20287e-05 -9.02489e-05 8.59362e-06 -3.44103e-05 -8.12117e-05 -1.05644e-06 -3.49542e-06 1.78201e-05
internal_weight=0 7178.97 12768.9 5494.57 3956.68 3222.29 2148.53 7274.36 1073.76 1890.93 3067.45 3040.07 4844.7
internal_count=80000 28866 51134 22007 15869 12997 8684 29127 4313 7631 12288 12179 19390
cat_boundaries=0 1 2 3 4 5 6 7 8 9 10 11 12 13
cat_threshold=12 2 2 2 34 16 4 2 4 2 4 2 4
is_linear=0
shrinkage=0.1


Tree=48
num_leaves=14
num_cat=13
split_feature=0 1 2 1 0 0 1 1 1 2 1 2 1
split_gain=0.00160448 0.000420737 0.000302791 0.00109948 0.000218365 0.000173882 0.000114245 0.000100046 8.34638e-05 5.27219e-05 4.63161e-05 9.00967e-06 9.72439e-07
threshold=0 1 2 3 4 5 6 7 8 9 10 11 12
decision_type=1 1 1 1 1 1 1 1 1 1 1 1 1
left_child=2 4 7 -4 11 8 9 -1 -3 -7 -5 -2 -9
right_child=1 5 3 10 -6 6 -8 12 -10 -11 -12 -13 -14
leaf_value=-8.8244765976782952e-06 -5.9529462954829961e-06 -1.035878439519575e-05 8.9126132849144798e-05 5.501841259246957e-06 -5.8642075645767562e-05 -8.0230632205690464e-05 -0.00014408421954399274 1.7464780514293765e-05 -6.844823144464415e-05 -3.4011062830225516e-05 -2.4343925177192307e-05 7.4398290689019693e-06 1.4631212184008402e-05
leaf_weight=2429.6652187258005 2405.1672375947237 687.38031774759293 2427.1049274206161 2403.999865591526 916.60744696855545 1599.0722950547934 257.60056172311306 2409.7356675863266 386.37865400314331 291.83816176652908 663.45187941193581 634.90018996596336 2434.9639370143414
leaf_count=9737 9637 2755 9719 9626 3690 6459 1053 9644 1558 1172 2662 2542 9746
internal_value=0 -3.79522e-05 2.11024e-05 3.88373e-05 -1.61581e-05 -6.48313e-05 -8.12303e-05 7.73558e-06 -3.09731e-05 -7.30972e-05 -9.53429e-07 -3.1456e-06 1.60406e-05
internal_weight=0 7178.94 12768.9 5494.56 3956.67 3222.27 2148.51 7274.36 1073.76 1890.91 3067.45 3040.07 4844.7
internal_count=80000 28866 51134 22007 15869 12997 8684 29127 4313 7631 12288 12179 19390
cat_boundaries=0 1 2 3 4 5 6 7 8 9 10 11 12 13
cat_threshold=12 2 2 2 34 16 4 2 4 2 4 2 4
is_linear=0
shrinkage=0.1


Tree=49
num_leaves=14
num_cat=13
split_feature=0 1 2 1 0 0 1 1 1 2 1 2 1
split_gain=0.00130001 0.000340585 0.000245317 0.000890647 0.000177362 0.000140849 9.25497e-05 8.10098e-05 6.75872e-05 4.26999e-05 3.75233e-05 7.30076e-06 7.89399e-07
threshold=0 1 2 3 4 5 6 7 8 9 10 11 12
decision_type=1 1 1 1 1 1 1 1 1 1 1 1 1
left_child=2 4 7 -4 11 8 9 -1 -3 -7 -5 -2 -9
right_child=1 5 3 10 -6 6 -8 12 -10 -11 -12 -13 -14
leaf_value=-7.9406660843957154e-06 -5.3558893402207102e-06 -9.3253071518861969e-06 8.0217501027156335e-05 4.9529073493078888e-06 -5.2844284168805638e-05 -7.2207409233844899e-05 -0.00012968041509168993 1.571730551502703e-05 -6.1598786873660592e-05 -3.0612104919134725e-05 -2.1910889729638128e-05 6.7000316261896705e-06 1.3164306872609532e-05
leaf_weight=2429.6643481701612 2405.166663184762 687.37998932600021 2427.097686201334 2404.000295907259 916.60315811634064 1599.0596867501736 257.59511697292328 2409.7366735339165 386.37628597021103 291.83755052089691 663.45096707344055 634.90034148097038 2434.9648083746433
leaf_count=9737 9637 2755 9719 9626 3690 6459 1053 9644 1558 1172 2662 2542 9746
internal_value=0 -3.41646e-05 1.89924e-05 3.49557e-05 -1.45561e-05 -5.83484e-05 -7.31079e-05 6.96089e-06 -2.78756e-05 -6.57877e-05 -8.57393e-07 -2.82878e-06 1.44342e-05
internal_weight=0 7178.92 12768.9 5494.55 3956.67 3222.25 2148.49 7274.37 1073.76 1890.9 3067.45 3040.07 4844.7
internal_count=80000 28866 51134 22007 15869 12997 8684 29127 4313 7631 12288 12179 19390
cat_boundaries=0 1 2 3 4 5 6 7 8 9 10 11 12 13
cat_threshold=12 2 2 2 34 16 4 2 4 2 4 2 4
is_linear=0
shrinkage=0.1


Tree=50
num_leaves=14
num_cat=13
split_feature=0 1 2 1 0 0 1 1 1 2 1 2 1
split_gain=0.00105338 0.000275647 0.000198741 0.000721474 0.000143997 0.000114159 7.49746e-05 6.56006e-05 5.47616e-05 3.46011e-05 3.03999e-05 5.9132e-06 6.38942e-07
threshold=0 1 2 3 4 5 6 7 8 9 10 11 12
decision_type=1 1 1 1 1 1 1 1 1 1 1 1 1
left_child=2 4 7 -4 11 8 9 -1 -3 -7 -5 -2 -9
right_child=1 5 3 10 -6 6 -8 12 -10 -11 -12 -13 -14
leaf_value=-7.1461712536696576e-06 -4.8242625763251526e-06 -8.3822135525368249e-06 7.2198072112014577e-05 4.4578657393587367e-06 -4.7616089822190199e-05 -6.4991745458538175e-05 -0.00011672032102843877 1.4142912877824832e-05 -5.5435295507905344e-05 -2.7548245724402365e-05 -1.9721980956512793e-05 6.0256784893365228e-06 1.1846060865640266e-05
leaf_weight=2429.663477614522 2405.1660887748003 687.37970195710659 2427.0913139283657 2404.0007262229919 916.59930914640427 1599.0483296513557 257.5902214050293 2409.7375357747078 386.37415009737015 291.83697420358658 663.45017373561859 634.9004929959774 2434.9655345082283
leaf_count=9737 9637 2755 9719 9626 3690 6459 1053 9644 1558 1172 2662 2542 9746
internal_value=0 -3.07571e-05 1.70927e-05 3.14609e-05 -1.31167e-05 -5.25137e-05 -6.58013e-05 6.26345e-06 -2.508e-05 -5.92128e-05 -7.71924e-07 -2.54993e-06 1.29885e-05
internal_weight=0 7178.9 12768.9 5494.54 3956.67 3222.23 2148.48 7274.37 1073.75 1890.89 3067.45 3040.07 4844.7
internal_count=80000 28866 51134 22007 15869 12997 8684 29127 4313 7631 12288 12179 19390
cat_boundaries=0 1 2 3 4 5 6 7 8 9 10 11 12 13
cat_threshold=12 2 2 2 34 16 4 2 4 2 4 2 4
is_linear=0
shrinkage=0.1


Tree=51
num_leaves=14
num_cat=13
split_feature=0 1 2 1 0 0 1 1 1 2 1 2 1
split_gain=0.000853532 0.000223111 0.000161001 0.00058421 0.000116865 9.24431e-05 6.07359e-05 5.31046e-05 4.43717e-05 2.80217e-05 2.4618e-05 4.78888e-06 5.16218e-07
threshold=0 1 2 3 4 5 6 7 8 9 10 11 12
decision_type=1 1 1 1 1 1 1 1 1 1 1 1 1
left_child=2 4 7 -4 11 8 9 -1 -3 -7 -5 -2 -9
right_child=1 5 3 10 -6 6 -8 12 -10 -11 -12 -13 -14
leaf_value=-6.4295672341574437e-06 -4.3466165392353769e-06 -7.5460877157006378e-06 6.4972397359076335e-05 4.015948028139271e-06 -4.2899123103140824e-05 -5.8491610187837011e-05 -0.00010505094322851681 1.2723846662217149e-05 -4.9901001714337611e-05 -2.4795548447078258e-05 -1.774332311403612e-05 5.4175022008184343e-06 1.0659327099180143e-05
leaf_weight=2429.6627521514893 2405.165657967329 687.37945564091206 2427.08552095294 2404.0010131001472 916.59579008817673 1599.0380312651396 257.58581225574017 2409.7383980154991 386.37224638462067 291.83646774291992 663.44945973157883 634.90060663223267 2434.9662606418133
leaf_count=9737 9637 2755 9719 9626 3690 6459 1053 9644 1558 1172 2662 2542 9746
internal_value=0 -2.76898e-05 1.53824e-05 2.83147e-05 -1.18193e-05 -4.72637e-05 -5.9221e-05 5.63548e-06 -2.25766e-05 -5.3291e-05 -6.90298e-07 -2.29987e-06 1.16862e-05
internal_weight=0 7178.87 12768.9 5494.54 3956.66 3222.21 2148.46 7274.37 1073.75 1890.87 3067.45 3040.07 4844.7
internal_count=80000 28866 51134 22007 15869 12997 8684 29127 4313 7631 12288 12179 19390
cat_boundaries=0 1 2 3 4 5 6 7 8 9 10 11 12 13
cat_threshold=12 2 2 2 34 16 4 2 4 2 4 2 4
is_linear=0
shrinkage=0.1


Tree=52
num_leaves=14
num_cat=13
split_feature=0 1 2 1 0 0 1 1 1 2 1 2 1
split_gain=0.00069157 0.000180617 0.000130376 0.000473362 9.49251e-05 7.48631e-05 4.91936e-05 4.30692e-05 3.59094e-05 2.27012e-05 1.99415e-05 3.88707e-06 4.14494e-07
threshold=0 1 2 3 4 5 6 7 8 9 10 11 12
decision_type=1 1 1 1 1 1 1 1 1 1 1 1 1
left_child=2 4 7 -4 11 8 9 -1 -3 -7 -5 -2 -9
right_child=1 5 3 10 -6 6 -8 12 -10 -11 -12 -13 -14
leaf_value=-5.7908545698247117e-06 -3.9105184816867909e-06 -6.7992799024755188e-06 5.8480418348090025e-05 3.6102146867611267e-06 -3.8656835716882081e-05 -5.2641415907104153e-05 -9.4543610557906716e-05 1.1453464275058894e-05 -4.4901952752586951e-05 -2.2312506201676979e-05 -1.5973588904904193e-05 4.8863363989141444e-06 9.6035081771138293e-06
leaf_weight=2429.6620266884565 2405.1652271598577 687.37920932471752 2427.0803072750568 2404.0012999773026 916.59265592694283 1599.0287915915251 257.58184245228767 2409.7389728426933 386.37050518393517 291.83601367473602 663.44878539443016 634.90068238973618 2434.9669867753983
leaf_count=9737 9637 2755 9719 9626 3690 6459 1053 9644 1558 1172 2662 2542 9746
internal_value=0 -2.49253e-05 1.38457e-05 2.54832e-05 -1.06459e-05 -4.25368e-05 -5.32973e-05 5.07457e-06 -2.03206e-05 -4.79605e-05 -6.25502e-07 -2.06655e-06 1.05237e-05
internal_weight=0 7178.85 12768.9 5494.53 3956.66 3222.2 2148.45 7274.37 1073.75 1890.86 3067.45 3040.07 4844.71
internal_count=80000 28866 51134 22007 15869 12997 8684 29127 4313 7631 12288 12179 19390
cat_boundaries=0 1 2 3 4 5 6 7 8 9 10 11 12 13
cat_threshold=12 2 2 2 34 16 4 2 4 2 4 2 4
is_linear=0
shrinkage=0.1


Tree=53
num_leaves=14
num_cat=13
split_feature=0 1 2 1 0 0 1 1 1 2 1 2 1
split_gain=0.00056027 0.000146217 0.000105617 0.000383399 7.7122e-05 6.06481e-05 3.9852e-05 3.48847e-05 2.91018e-05 1.83873e-05 1.61606e-05 3.13653e-06 3.35892e-07
threshold=0 1 2 3 4 5 6 7 8 9 10 11 12
decision_type=1 1 1 1 1 1 1 1 1 1 1 1 1
left_child=2 4 7 -4 11 8 9 -1 -3 -7 -5 -2 -9
right_child=1 5 3 10 -6 6 -8 12 -10 -11 -12 -13 -14
leaf_value=-5.2113395744770593e-06 -3.5107357198043135e-06 -6.1127280048918057e-06 5.2632841649722234e-05 3.2522147144208053e-06 -3.4835358483772243e-05 -4.7375573768528863e-05 -8.5090583486504176e-05 1.0308453147174927e-05 -4.0414124670024504e-05 -2.0080035311560992e-05 -1.4377569854542156e-05 4.3913331358227775e-06 8.6431178451283125e-06
leaf_weight=2429.6614463180304 2405.1647963523865 687.37900406122208 2427.0755280703306 2404.0015868544579 916.58979669213295 1599.0205143839121 257.57828061282635 2409.7396913766861 386.36894971132278 291.83561199903488 663.44819039106369 634.90079602599144 2434.9675676822662
leaf_count=9737 9637 2755 9719 9626 3690 6459 1053 9644 1558 1172 2662 2542 9746
internal_value=0 -2.24351e-05 1.24618e-05 2.29362e-05 -9.58737e-06 -3.82811e-05 -4.79663e-05 4.56735e-06 -1.82852e-05 -4.31628e-05 -5.60871e-07 -1.85433e-06 9.47145e-06
internal_weight=0 7178.84 12768.9 5494.53 3956.66 3222.18 2148.43 7274.37 1073.75 1890.86 3067.45 3040.07 4844.71
internal_count=80000 28866 51134 22007 15869 12997 8684 29127 4313 7631 12288 12179 19390
cat_boundaries=0 1 2 3 4 5 6 7 8 9 10 11 12 13
cat_threshold=12 2 2 2 34 16 4 2 4 2 4 2 4
is_linear=0
shrinkage=0.1


Tree=54
num_leaves=14
num_cat=13
split_feature=0 1 2 1 0 0 1 1 1 2 1 2 1
split_gain=0.000453962 0.000118406 8.55061e-05 0.000310502 6.2624e-05 4.91248e-05 3.22632e-05 2.82355e-05 2.35561e-05 1.48959e-05 1.30798e-05 2.54236e-06 2.76181e-07
threshold=0 1 2 3 4 5 6 7 8 9 10 11 12
decision_type=1 1 1 1 1 1 1 1 1 1 1 1 1
left_child=2 4 7 -4 11 8 9 -1 -3 -7 -5 -2 -9
right_child=1 5 3 10 -6 6 -8 12 -10 -11 -12 -13 -14
leaf_value=-4.6858292322811305e-06 -3.158717341897974e-06 -5.5092550475391729e-06 4.7364233445625287e-05 2.9242402720169401e-06 -3.1387223457317438e-05 -4.2643572560979041e-05 -7.6577122116758758e-05 9.2827148568849739e-06 -3.636981580196294e-05 -1.8075713464159435e-05 -1.2936333062245077e-05 3.9556250405315903e-06 7.7726396071505594e-06
leaf_weight=2429.6608659476042 2405.1645091474056 687.37883985042572 2427.071328163147 2404.0018737316132 916.58726736903191 1599.0130071491003 257.57506397366524 2409.7402662038803 386.36755675077438 291.83524525165558 663.44767472147942 634.90087178349495 2434.9680033624172
leaf_count=9737 9637 2755 9719 9626 3690 6459 1053 9644 1558 1172 2662 2542 9746
internal_value=0 -2.01973e-05 1.12149e-05 2.06394e-05 -8.63579e-06 -3.4457e-05 -4.31737e-05 4.11171e-06 -1.64606e-05 -3.88517e-05 -5.06186e-07 -1.66744e-06 8.52375e-06
internal_weight=0 7178.82 12768.9 5494.52 3956.65 3222.17 2148.42 7274.37 1073.75 1890.85 3067.45 3040.07 4844.71
internal_count=80000 28866 51134 22007 15869 12997 8684 29127 4313 7631 12288 12179 19390
cat_boundaries=0 1 2 3 4 5 6 7 8 9 10 11 12 13
cat_threshold=12 2 2 2 34 16 4 2 4 2 4 2 4
is_linear=0
shrinkage=0.1


Tree=55
num_leaves=14
num_cat=13
split_feature=0 1 2 1 0 0 1 1 1 2 1 2 1
split_gain=0.000367862 9.57706e-05 6.92671e-05 0.000251565 5.08414e-05 3.97698e-05 2.61448e-05 2.28587e-05 1.90976e-05 1.20628e-05 1.05977e-05 2.06023e-06 2.22502e-07
threshold=0 1 2 3 4 5 6 7 8 9 10 11 12
decision_type=1 1 1 1 1 1 1 1 1 1 1 1 1
left_child=2 4 7 -4 11 8 9 -1 -3 -7 -5 -2 -9
right_child=1 5 3 10 -6 6 -8 12 -10 -11 -12 -13 -14
leaf_value=-4.2143233302692719e-06 -2.8482470479368601e-06 -4.9535609428024954e-06 4.2632235087318909e-05 2.6316815476889514e-06 -2.8284197867409065e-05 -3.8371346072532687e-05 -6.8919626611149004e-05 8.3523948179317922e-06 -3.2740613810719295e-05 -1.6262880985791179e-05 -1.1644898428648747e-05 3.5560797124763313e-06 6.996991401672427e-06
leaf_weight=2429.6604306697845 2405.1642219424248 687.37863458693027 2427.0675627291203 2404.0021606087685 916.58495798707008 1599.0062698870897 257.57216115295887 2409.740697324276 386.36630308628082 291.83491343259811 663.44719871878624 634.90094754099846 2434.9685842692852
leaf_count=9737 9637 2755 9719 9626 3690 6459 1053 9644 1558 1172 2662 2542 9746
internal_value=0 -1.81823e-05 1.00946e-05 1.85771e-05 -7.78448e-06 -3.10068e-05 -3.88498e-05 3.70138e-06 -1.48142e-05 -3.49591e-05 -4.56147e-07 -1.50579e-06 7.67116e-06
internal_weight=0 7178.81 12768.9 5494.52 3956.65 3222.16 2148.41 7274.37 1073.74 1890.84 3067.45 3040.07 4844.71
internal_count=80000 28866 51134 22007 15869 12997 8684 29127 4313 7631 12288 12179 19390
cat_boundaries=0 1 2 3 4 5 6 7 8 9 10 11 12 13
cat_threshold=12 2 2 2 34 16 4 2 4 2 4 2 4
is_linear=0
shrinkage=0.1


Tree=56
num_leaves=14
num_cat=13
split_feature=0 1 2 1 0 0 1 1 1 2 1 2 1
split_gain=0.00029804 7.75402e-05 5.61019e-05 0.000203729 4.12788e-05 3.22212e-05 2.11795e-05 1.85016e-05 1.54677e-05 9.7747e-06 8.58358e-06 1.6664e-06 1.81445e-07
threshold=0 1 2 3 4 5 6 7 8 9 10 11 12
decision_type=1 1 1 1 1 1 1 1 1 1 1 1 1
left_child=2 4 7 -4 11 8 9 -1 -3 -7 -5 -2 -9
right_child=1 5 3 10 -6 6 -8 12 -10 -11 -12 -13 -14
leaf_value=-3.7905910570711637e-06 -2.5616590419991138e-06 -4.4581228363982173e-06 3.8366047325346785e-05 2.3691484718716791e-06 -2.5483319033199462e-05 -3.4536682434944061e-05 -6.2031262537866328e-05 7.5174923643496351e-06 -2.9465360288495574e-05 -1.4635177943770424e-05 -1.0479350864045084e-05 3.1981140271360632e-06 6.2935117605378526e-06
leaf_weight=2429.6599953919649 2405.1639347374439 687.37851142883301 2427.0640869438648 2404.0023040473461 916.58286854624748 1599.0002063512802 257.56955645978451 2409.7411284446716 386.36516550183296 291.83459907770157 663.44676238298416 634.90102329850197 2434.9690199494362
leaf_count=9737 9637 2755 9719 9626 3690 6459 1053 9644 1558 1172 2662 2542 9746
internal_value=0 -1.63678e-05 9.08449e-06 1.67185e-05 -7.01178e-06 -2.79073e-05 -3.49668e-05 3.33085e-06 -1.33323e-05 -3.14651e-05 -4.09804e-07 -1.35431e-06 6.90232e-06
internal_weight=0 7178.8 12768.9 5494.51 3956.65 3222.15 2148.4 7274.37 1073.74 1890.83 3067.45 3040.06 4844.71
internal_count=80000 28866 51134 22007 15869 12997 8684 29127 4313 7631 12288 12179 19390
cat_boundaries=0 1 2 3 4 5 6 7 8 9 10 11 12 13
cat_threshold=12 2 2 2 34 16 4 2 4 2 4 2 4
is_linear=0
shrinkage=0.1


Tree=57
num_leaves=14
num_cat=13
split_feature=0 1 2 1 0 0 1 1 1 2 1 2 1
split_gain=0.000241536 6.27552e-05 4.54958e-05 0.000165053 3.35255e-05 2.61178e-05 1.71592e-05 1.50083e-05 1.25273e-05 7.91823e-06 6.96635e-06 1.35413e-06 1.44725e-07
threshold=0 1 2 3 4 5 6 7 8 9 10 11 12
decision_type=1 1 1 1 1 1 1 1 1 1 1 1 1
left_child=2 4 7 -4 11 8 9 -1 -3 -7 -5 -2 -9
right_child=1 5 3 10 -6 6 -8 12 -10 -11 -12 -13 -14
leaf_value=-3.4198258833649618e-06 -2.3104025934480969e-06 -4.0104636570559183e-06 3.4534838601787789e-05 2.1366408647111574e-06 -2.2967264379492276e-05 -3.1087205194834718e-05 -5.583539678430473e-05 6.7602527550712043e-06 -2.6515636947888855e-05 -1.3175028679726334e-05 -9.4383611799718407e-06 2.8817279696267197e-06 5.6671194942209978e-06
leaf_weight=2429.6595601141453 2405.1636475324631 687.37834721803665 2427.0610456317663 2404.0024474859238 916.5809990465641 1598.9948165416718 257.56720282137394 2409.7415595650673 386.3641439974308 291.83433711528778 663.44636571407318 634.90109905600548 2434.9693104028702
leaf_count=9737 9637 2755 9719 9626 3690 6459 1053 9644 1558 1172 2662 2542 9746
internal_value=0 -1.47374e-05 8.17548e-06 1.50501e-05 -6.32058e-06 -2.51187e-05 -3.14746e-05 2.99417e-06 -1.19968e-05 -2.83226e-05 -3.66871e-07 -1.22203e-06 6.21084e-06
internal_weight=0 7178.78 12768.9 5494.51 3956.65 3222.14 2148.4 7274.37 1073.74 1890.83 3067.45 3040.06 4844.71
internal_count=80000 28866 51134 22007 15869 12997 8684 29127 4313 7631 12288 12179 19390
cat_boundaries=0 1 2 3 4 5 6 7 8 9 10 11 12 13
cat_threshold=12 2 2 2 34 16 4 2 4 2 4 2 4
is_linear=0
shrinkage=0.1


Tree=58
num_leaves=14
num_cat=13
split_feature=0 1 2 1 0 0 1 1 1 2 1 2 1
split_gain=0.000195679 5.07837e-05 3.68499e-05 0.000133678 2.72405e-05 2.11207e-05 1.39037e-05 1.21404e-05 1.01485e-05 6.41172e-06 5.6345e-06 1.09695e-06 1.19107e-07
threshold=0 1 2 3 4 5 6 7 8 9 10 11 12
decision_type=1 1 1 1 1 1 1 1 1 1 1 1 1
left_child=2 4 7 -4 11 8 9 -1 -3 -7 -5 -2 -9
right_child=1 5 3 10 -6 6 -8 12 -10 -11 -12 -13 -14
leaf_value=-3.0739851921514073e-06 -2.0777957434405259e-06 -3.6157553594471645e-06 3.1080142794762079e-05 1.9218409873568652e-06 -2.0699480035259995e-05 -2.797053954192986e-05 -5.0248571616328853e-05 6.0862313992739952e-06 -2.3871804051618345e-05 -1.1852136620839817e-05 -8.4880502425718309e-06 2.595355640137895e-06 5.0945542890686546e-06
leaf_weight=2429.6591248363256 2405.1633603274822 687.37822405993938 2427.0581491440535 2404.0027343630791 916.57934948801994 1598.989907965064 257.56510023772717 2409.741990685463 386.3632153570652 291.83409261703491 663.4460483789444 634.90113693475723 2434.9697460830212
leaf_count=9737 9637 2755 9719 9626 3690 6459 1053 9644 1558 1172 2662 2542 9746
internal_value=0 -1.32656e-05 7.35782e-06 1.35448e-05 -5.69406e-06 -2.26044e-05 -2.83201e-05 2.69475e-06 -1.08038e-05 -2.54828e-05 -3.29672e-07 -1.09822e-06 5.58781e-06
internal_weight=0 7178.77 12768.9 5494.51 3956.64 3222.13 2148.39 7274.37 1073.74 1890.82 3067.45 3040.06 4844.71
internal_count=80000 28866 51134 22007 15869 12997 8684 29127 4313 7631 12288 12179 19390
cat_boundaries=0 1 2 3 4 5 6 7 8 9 10 11 12 13
cat_threshold=12 2 2 2 34 16 4 2 4 2 4 2 4
is_linear=0
shrinkage=0.1


Tree=59
num_leaves=14
num_cat=13
split_feature=0 1 2 1 0 0 1 1 1 2 1 2 1
split_gain=0.00015855 4.11295e-05 2.98088e-05 0.000108273 2.21218e-05 1.71351e-05 1.12523e-05 9.84431e-06 8.21883e-06 5.19225e-06 4.57048e-06 8.84254e-07 9.59808e-08
threshold=0 1 2 3 4 5 6 7 8 9 10 11 12
decision_type=1 1 1 1 1 1 1 1 1 1 1 1 1
left_child=2 4 7 -4 11 8 9 -1 -3 -7 -5 -2 -9
right_child=1 5 3 10 -6 6 -8 12 -10 -11 -12 -13 -14
leaf_value=-2.7634557255258331e-06 -1.862854543791844e-06 -3.2460027394540222e-06 2.7971125436820917e-05 1.7309078864064196e-06 -1.864722191237745e-05 -2.5177694662510301e-05 -4.5218690941154998e-05 5.4837735126375968e-06 -2.1474855631053925e-05 -1.0672863839845212e-05 -7.6446941368192754e-06 2.332847550679582e-06 4.593560073868367e-06
leaf_weight=2429.6588346511126 2405.1632167249918 687.37814195454121 2427.0556871294975 2404.0028778016567 916.57780990004539 1598.9854806214571 257.56318594515324 2409.7422780990601 386.3624027967453 291.83388304710388 663.44573104381561 634.90121269226074 2434.9700365364552
leaf_count=9737 9637 2755 9719 9626 3690 6459 1053 9644 1558 1172 2662 2542 9746
internal_value=0 -1.19389e-05 6.62516e-06 1.21898e-05 -5.12491e-06 -2.03432e-05 -2.54914e-05 2.43119e-06 -9.71479e-06 -2.2939e-05 -2.96902e-07 -9.8337e-07 5.03635e-06
internal_weight=0 7178.77 12768.9 5494.5 3956.64 3222.12 2148.38 7274.37 1073.74 1890.82 3067.45 3040.06 4844.71
internal_count=80000 28866 51134 22007 15869 12997 8684 29127 4313 7631 12288 12179 19390
cat_boundaries=0 1 2 3 4 5 6 7 8 9 10 11 12 13
cat_threshold=12 2 2 2 34 16 4 2 4 2 4 2 4
is_linear=0
shrinkage=0.1


Tree=60
num_leaves=14
num_cat=13
split_feature=0 1 2 1 0 0 1 1 1 2 1 2 1
split_gain=0.000128453 3.32954e-05 2.41424e-05 8.76522e-05 1.7971e-05 1.38694e-05 9.12073e-06 7.99027e-06 6.65239e-06 4.20837e-06 3.70124e-06 7.17094e-07 7.7699e-08
threshold=0 1 2 3 4 5 6 7 8 9 10 11 12
decision_type=1 1 1 1 1 1 1 1 1 1 1 1 1
left_child=2 4 7 -4 11 8 9 -1 -3 -7 -5 -2 -9
right_child=1 5 3 10 -6 6 -8 12 -10 -11 -12 -13 -14
leaf_value=-2.4944688556863091e-06 -1.6780122427952953e-06 -2.929201527124862e-06 2.5167020335705289e-05 1.5576826218009409e-06 -1.6806682611220293e-05 -2.2660523179989101e-05 -4.0703842585247931e-05 4.9351239839599575e-06 -1.932918675472459e-05 -9.602062203330974e-06 -6.8793952252318749e-06 2.1003531414799611e-06 4.134166121090882e-06
leaf_weight=2429.6585444658995 2405.1630731225014 687.37801879644394 2427.0533699393272 2404.0030212402344 916.57643526792526 1598.9814382642508 257.56147563457489 2409.7425655126572 386.36165988445282 291.83367347717285 663.44545337557793 634.9012505710125 2434.9703269898891
leaf_count=9737 9637 2755 9719 9626 3690 6459 1053 9644 1558 1172 2662 2542 9746
internal_value=0 -1.07496e-05 5.95988e-06 1.09677e-05 -4.61883e-06 -1.83113e-05 -2.2943e-05 2.18551e-06 -8.7489e-06 -2.0645e-05 -2.67137e-07 -8.86006e-07 4.53256e-06
internal_weight=0 7178.76 12768.9 5494.5 3956.64 3222.12 2148.38 7274.37 1073.74 1890.82 3067.45 3040.06 4844.71
internal_count=80000 28866 51134 22007 15869 12997 8684 29127 4313 7631 12288 12179 19390
cat_boundaries=0 1 2 3 4 5 6 7 8 9 10 11 12 13
cat_threshold=12 2 2 2 34 16 4 2 4 2 4 2 4
is_linear=0
shrinkage=0.1


Tree=61
num_leaves=14
num_cat=13
split_feature=0 1 2 1 0 0 1 1 1 2 1 2 1
split_gain=0.000104106 2.69542e-05 1.95501e-05 7.10514e-05 1.45923e-05 1.12365e-05 7.3863e-06 6.4524e-06 5.39102e-06 3.40885e-06 2.9945e-06 5.79439e-07 6.33649e-08
threshold=0 1 2 3 4 5 6 7 8 9 10 11 12
decision_type=1 1 1 1 1 1 1 1 1 1 1 1 1
left_child=2 4 7 -4 11 8 9 -1 -3 -7 -5 -2 -9
right_child=1 5 3 10 -6 6 -8 12 -10 -11 -12 -13 -14
leaf_value=-2.2379442337289824e-06 -1.5108357379155142e-06 -2.6362894934843791e-06 2.2654696105221839e-05 1.3967750770742429e-06 -1.5145114719719418e-05 -2.0397332725337565e-05 -3.6634533295286934e-05 4.4402827939876686e-06 -1.7399826592040092e-05 -8.6445816573951536e-06 -6.1921541133104152e-06 1.8855739492548951e-06 3.7169699151069019e-06
leaf_weight=2429.6582542806864 2405.1629295200109 687.37793669104576 2427.0513423979282 2404.0030212402344 916.57522559165955 1598.9778771400452 257.55993792414665 2409.7428529262543 386.36098662018776 291.83349883556366 663.44517570734024 634.90128844976425 2434.9704722166061
leaf_count=9737 9637 2755 9719 9626 3690 6459 1053 9644 1558 1172 2662 2542 9746
internal_value=0 -9.6787e-06 5.36409e-06 9.87056e-06 -4.16256e-06 -1.64824e-05 -2.06513e-05 1.96762e-06 -7.87527e-06 -1.85834e-05 -2.44602e-07 -7.98886e-07 4.07674e-06
internal_weight=0 7178.75 12768.9 5494.5 3956.64 3222.11 2148.37 7274.37 1073.74 1890.81 3067.45 3040.06 4844.71
internal_count=80000 28866 51134 22007 15869 12997 8684 29127 4313 7631 12288 12179 19390
cat_boundaries=0 1 2 3 4 5 6 7 8 9 10 11 12 13
cat_threshold=12 2 2 2 34 16 4 2 4 2 4 2 4
is_linear=0
shrinkage=0.1


Tree=62
num_leaves=14
num_cat=13
split_feature=0 1 2 1 0 0 1 1 1 2 1 2 1
split_gain=8.4297e-05 2.18251e-05 1.58411e-05 5.75526e-05 1.1836e-05 9.10022e-06 5.97602e-06 5.22427e-06 4.36519e-06 2.75966e-06 2.4212e-06 4.72663e-07 4.96334e-08
threshold=0 1 2 3 4 5 6 7 8 9 10 11 12
decision_type=1 1 1 1 1 1 1 1 1 1 1 1 1
left_child=2 4 7 -4 11 8 9 -1 -3 -7 -5 -2 -9
right_child=1 5 3 10 -6 6 -8 12 -10 -11 -12 -13 -14
leaf_value=-2.0167309541356756e-06 -1.3613251135959467e-06 -2.3735058464215747e-06 2.0387215756740629e-05 1.2535752711113543e-06 -1.3638784420590934e-05 -1.8357436300374332e-05 -3.2962043828781486e-05 3.9870506934701144e-06 -1.5658352674611413e-05 -7.7828481862496421e-06 -5.5703478860975834e-06 1.7062251590096926e-06 3.3468899472245397e-06
leaf_weight=2429.6581091880798 2405.1626423150301 687.37785458564758 2427.0496045053005 2404.003164678812 916.57407090067863 1598.9747010022402 257.55855712294579 2409.7431403398514 386.36038300395012 291.83334165811539 663.44493770599365 634.90132632851601 2434.9707626700401
leaf_count=9737 9637 2755 9719 9626 3690 6459 1053 9644 1558 1172 2662 2542 9746
internal_value=0 -8.71134e-06 4.82485e-06 8.88139e-06 -3.74769e-06 -1.48336e-05 -1.85854e-05 1.76749e-06 -7.08775e-06 -1.67253e-05 -2.22341e-07 -7.18321e-07 3.6653e-06
internal_weight=0 7178.74 12768.9 5494.5 3956.64 3222.1 2148.37 7274.37 1073.74 1890.81 3067.45 3040.06 4844.71
internal_count=80000 28866 51134 22007 15869 12997 8684 29127 4313 7631 12288 12179 19390
cat_boundaries=0 1 2 3 4 5 6 7 8 9 10 11 12 13
cat_threshold=12 2 2 2 34 16 4 2 4 2 4 2 4
is_linear=0
